digraph Tree {
node [shape=box, style="filled, rounded", color="black", fontname=helvetica] ;
edge [fontname=helvetica] ;
0 [label=<atemp &le; 0.431<br/>mse = 3614523.104<br/>samples = 584<br/>value = 4424.713>, fillcolor="#e5813984"] ;
1 [label=<year &le; 0.5<br/>mse = 2293058.499<br/>samples = 251<br/>value = 3038.909>, fillcolor="#e5813956"] ;
0 -> 1 [labeldistance=2.5, labelangle=45, headlabel="True"] ;
2 [label=<season &le; 3.0<br/>mse = 981021.098<br/>samples = 135<br/>value = 2201.207>, fillcolor="#e581393a"] ;
1 -> 2 ;
3 [label=<month &le; 1.5<br/>mse = 347028.818<br/>samples = 94<br/>value = 1729.766>, fillcolor="#e581392b"] ;
2 -> 3 ;
4 [label=<workingday &le; 0.5<br/>mse = 127436.143<br/>samples = 27<br/>value = 1251.926>, fillcolor="#e581391b"] ;
3 -> 4 ;
5 [label=<windspeed &le; 0.248<br/>mse = 18912.29<br/>samples = 10<br/>value = 1022.1>, fillcolor="#e5813913"] ;
4 -> 5 ;
6 [label=<atemp &le; 0.194<br/>mse = 9752.688<br/>samples = 8<br/>value = 1074.75>, fillcolor="#e5813915"] ;
5 -> 6 ;
7 [label=<humidity &le; 0.487<br/>mse = 64.667<br/>samples = 3<br/>value = 989.0>, fillcolor="#e5813912"] ;
6 -> 7 ;
8 [label=<humidity &le; 0.418<br/>mse = 6.25<br/>samples = 2<br/>value = 983.5>, fillcolor="#e5813912"] ;
7 -> 8 ;
9 [label=<mse = 0.0<br/>samples = 1<br/>value = 981.0>, fillcolor="#e5813912"] ;
8 -> 9 ;
10 [label=<mse = 0.0<br/>samples = 1<br/>value = 986.0>, fillcolor="#e5813912"] ;
8 -> 10 ;
11 [label=<mse = 0.0<br/>samples = 1<br/>value = 1000.0>, fillcolor="#e5813913"] ;
7 -> 11 ;
12 [label=<humidity &le; 0.575<br/>mse = 8506.56<br/>samples = 5<br/>value = 1126.2>, fillcolor="#e5813917"] ;
6 -> 12 ;
13 [label=<humidity &le; 0.491<br/>mse = 484.0<br/>samples = 2<br/>value = 1226.0>, fillcolor="#e581391a"] ;
12 -> 13 ;
14 [label=<mse = 0.0<br/>samples = 1<br/>value = 1204.0>, fillcolor="#e5813919"] ;
13 -> 14 ;
15 [label=<mse = 0.0<br/>samples = 1<br/>value = 1248.0>, fillcolor="#e581391b"] ;
13 -> 15 ;
16 [label=<windspeed &le; 0.153<br/>mse = 2788.222<br/>samples = 3<br/>value = 1059.667>, fillcolor="#e5813915"] ;
12 -> 16 ;
17 [label=<humidity &le; 0.687<br/>mse = 1.0<br/>samples = 2<br/>value = 1097.0>, fillcolor="#e5813916"] ;
16 -> 17 ;
18 [label=<mse = 0.0<br/>samples = 1<br/>value = 1098.0>, fillcolor="#e5813916"] ;
17 -> 18 ;
19 [label=<mse = 0.0<br/>samples = 1<br/>value = 1096.0>, fillcolor="#e5813916"] ;
17 -> 19 ;
20 [label=<mse = 0.0<br/>samples = 1<br/>value = 985.0>, fillcolor="#e5813912"] ;
16 -> 20 ;
21 [label=<humidity &le; 0.565<br/>mse = 110.25<br/>samples = 2<br/>value = 811.5>, fillcolor="#e581390d"] ;
5 -> 21 ;
22 [label=<mse = 0.0<br/>samples = 1<br/>value = 822.0>, fillcolor="#e581390d"] ;
21 -> 22 ;
23 [label=<mse = 0.0<br/>samples = 1<br/>value = 801.0>, fillcolor="#e581390c"] ;
21 -> 23 ;
24 [label=<humidity &le; 0.652<br/>mse = 141926.339<br/>samples = 17<br/>value = 1387.118>, fillcolor="#e581391f"] ;
4 -> 24 ;
25 [label=<atemp &le; 0.234<br/>mse = 51423.354<br/>samples = 12<br/>value = 1532.25>, fillcolor="#e5813924"] ;
24 -> 25 ;
26 [label=<atemp &le; 0.199<br/>mse = 18444.45<br/>samples = 10<br/>value = 1447.5>, fillcolor="#e5813921"] ;
25 -> 26 ;
27 [label=<humidity &le; 0.546<br/>mse = 13226.472<br/>samples = 6<br/>value = 1366.167>, fillcolor="#e581391f"] ;
26 -> 27 ;
28 [label=<weekday &le; 4.5<br/>mse = 5867.6<br/>samples = 5<br/>value = 1407.0>, fillcolor="#e5813920"] ;
27 -> 28 ;
29 [label=<atemp &le; 0.151<br/>mse = 1554.5<br/>samples = 4<br/>value = 1373.0>, fillcolor="#e581391f"] ;
28 -> 29 ;
30 [label=<humidity &le; 0.481<br/>mse = 25.0<br/>samples = 2<br/>value = 1411.0>, fillcolor="#e5813920"] ;
29 -> 30 ;
31 [label=<mse = 0.0<br/>samples = 1<br/>value = 1406.0>, fillcolor="#e5813920"] ;
30 -> 31 ;
32 [label=<mse = 0.0<br/>samples = 1<br/>value = 1416.0>, fillcolor="#e5813920"] ;
30 -> 32 ;
33 [label=<atemp &le; 0.17<br/>mse = 196.0<br/>samples = 2<br/>value = 1335.0>, fillcolor="#e581391e"] ;
29 -> 33 ;
34 [label=<mse = 0.0<br/>samples = 1<br/>value = 1321.0>, fillcolor="#e581391d"] ;
33 -> 34 ;
35 [label=<mse = 0.0<br/>samples = 1<br/>value = 1349.0>, fillcolor="#e581391e"] ;
33 -> 35 ;
36 [label=<mse = 0.0<br/>samples = 1<br/>value = 1543.0>, fillcolor="#e5813925"] ;
28 -> 36 ;
37 [label=<mse = 0.0<br/>samples = 1<br/>value = 1162.0>, fillcolor="#e5813918"] ;
27 -> 37 ;
38 [label=<weekday &le; 4.5<br/>mse = 1464.75<br/>samples = 4<br/>value = 1569.5>, fillcolor="#e5813925"] ;
26 -> 38 ;
39 [label=<atemp &le; 0.221<br/>mse = 379.556<br/>samples = 3<br/>value = 1589.333>, fillcolor="#e5813926"] ;
38 -> 39 ;
40 [label=<mse = 0.0<br/>samples = 1<br/>value = 1562.0>, fillcolor="#e5813925"] ;
39 -> 40 ;
41 [label=<weekday &le; 3.5<br/>mse = 9.0<br/>samples = 2<br/>value = 1603.0>, fillcolor="#e5813927"] ;
39 -> 41 ;
42 [label=<mse = 0.0<br/>samples = 1<br/>value = 1600.0>, fillcolor="#e5813927"] ;
41 -> 42 ;
43 [label=<mse = 0.0<br/>samples = 1<br/>value = 1606.0>, fillcolor="#e5813927"] ;
41 -> 43 ;
44 [label=<mse = 0.0<br/>samples = 1<br/>value = 1510.0>, fillcolor="#e5813924"] ;
38 -> 44 ;
45 [label=<windspeed &le; 0.163<br/>mse = 841.0<br/>samples = 2<br/>value = 1956.0>, fillcolor="#e5813932"] ;
25 -> 45 ;
46 [label=<mse = 0.0<br/>samples = 1<br/>value = 1985.0>, fillcolor="#e5813933"] ;
45 -> 46 ;
47 [label=<mse = 0.0<br/>samples = 1<br/>value = 1927.0>, fillcolor="#e5813931"] ;
45 -> 47 ;
48 [label=<atemp &le; 0.265<br/>mse = 187256.16<br/>samples = 5<br/>value = 1038.8>, fillcolor="#e5813914"] ;
24 -> 48 ;
49 [label=<weather_type &le; 1.5<br/>mse = 117331.0<br/>samples = 4<br/>value = 886.0>, fillcolor="#e581390f"] ;
48 -> 49 ;
50 [label=<mse = 0.0<br/>samples = 1<br/>value = 431.0>, fillcolor="#e5813900"] ;
49 -> 50 ;
51 [label=<atemp &le; 0.228<br/>mse = 64430.222<br/>samples = 3<br/>value = 1037.667>, fillcolor="#e5813914"] ;
49 -> 51 ;
52 [label=<humidity &le; 0.74<br/>mse = 2304.0<br/>samples = 2<br/>value = 1215.0>, fillcolor="#e581391a"] ;
51 -> 52 ;
53 [label=<mse = 0.0<br/>samples = 1<br/>value = 1263.0>, fillcolor="#e581391b"] ;
52 -> 53 ;
54 [label=<mse = 0.0<br/>samples = 1<br/>value = 1167.0>, fillcolor="#e5813918"] ;
52 -> 54 ;
55 [label=<mse = 0.0<br/>samples = 1<br/>value = 683.0>, fillcolor="#e5813908"] ;
51 -> 55 ;
56 [label=<mse = 0.0<br/>samples = 1<br/>value = 1650.0>, fillcolor="#e5813928"] ;
48 -> 56 ;
57 [label=<humidity &le; 0.883<br/>mse = 306427.086<br/>samples = 67<br/>value = 1922.328>, fillcolor="#e5813931"] ;
3 -> 57 ;
58 [label=<atemp &le; 0.351<br/>mse = 246479.551<br/>samples = 63<br/>value = 1985.524>, fillcolor="#e5813933"] ;
57 -> 58 ;
59 [label=<month &le; 2.5<br/>mse = 186237.072<br/>samples = 46<br/>value = 1837.435>, fillcolor="#e581392e"] ;
58 -> 59 ;
60 [label=<humidity &le; 0.43<br/>mse = 50553.882<br/>samples = 17<br/>value = 1610.0>, fillcolor="#e5813927"] ;
59 -> 60 ;
61 [label=<humidity &le; 0.423<br/>mse = 15782.0<br/>samples = 3<br/>value = 1948.0>, fillcolor="#e5813932"] ;
60 -> 61 ;
62 [label=<weekday &le; 1.5<br/>mse = 2756.25<br/>samples = 2<br/>value = 1864.5>, fillcolor="#e581392f"] ;
61 -> 62 ;
63 [label=<mse = 0.0<br/>samples = 1<br/>value = 1812.0>, fillcolor="#e581392d"] ;
62 -> 63 ;
64 [label=<mse = 0.0<br/>samples = 1<br/>value = 1917.0>, fillcolor="#e5813931"] ;
62 -> 64 ;
65 [label=<mse = 0.0<br/>samples = 1<br/>value = 2115.0>, fillcolor="#e5813937"] ;
61 -> 65 ;
66 [label=<holiday &le; 0.5<br/>mse = 28278.245<br/>samples = 14<br/>value = 1537.571>, fillcolor="#e5813924"] ;
60 -> 66 ;
67 [label=<humidity &le; 0.802<br/>mse = 15095.598<br/>samples = 13<br/>value = 1570.692>, fillcolor="#e5813926"] ;
66 -> 67 ;
68 [label=<windspeed &le; 0.125<br/>mse = 12346.021<br/>samples = 12<br/>value = 1588.25>, fillcolor="#e5813926"] ;
67 -> 68 ;
69 [label=<weekday &le; 3.0<br/>mse = 289.0<br/>samples = 2<br/>value = 1729.0>, fillcolor="#e581392b"] ;
68 -> 69 ;
70 [label=<mse = 0.0<br/>samples = 1<br/>value = 1712.0>, fillcolor="#e581392a"] ;
69 -> 70 ;
71 [label=<mse = 0.0<br/>samples = 1<br/>value = 1746.0>, fillcolor="#e581392b"] ;
69 -> 71 ;
72 [label=<atemp &le; 0.272<br/>mse = 10002.89<br/>samples = 10<br/>value = 1560.1>, fillcolor="#e5813925"] ;
68 -> 72 ;
73 [label=<windspeed &le; 0.192<br/>mse = 2481.472<br/>samples = 6<br/>value = 1520.167>, fillcolor="#e5813924"] ;
72 -> 73 ;
74 [label=<mse = 0.0<br/>samples = 1<br/>value = 1605.0>, fillcolor="#e5813927"] ;
73 -> 74 ;
75 [label=<windspeed &le; 0.213<br/>mse = 1250.56<br/>samples = 5<br/>value = 1503.2>, fillcolor="#e5813923"] ;
73 -> 75 ;
76 [label=<workingday &le; 0.5<br/>mse = 121.0<br/>samples = 2<br/>value = 1461.0>, fillcolor="#e5813922"] ;
75 -> 76 ;
77 [label=<mse = 0.0<br/>samples = 1<br/>value = 1472.0>, fillcolor="#e5813922"] ;
76 -> 77 ;
78 [label=<mse = 0.0<br/>samples = 1<br/>value = 1450.0>, fillcolor="#e5813922"] ;
76 -> 78 ;
79 [label=<windspeed &le; 0.243<br/>mse = 24.889<br/>samples = 3<br/>value = 1531.333>, fillcolor="#e5813924"] ;
75 -> 79 ;
80 [label=<mse = 0.0<br/>samples = 1<br/>value = 1538.0>, fillcolor="#e5813924"] ;
79 -> 80 ;
81 [label=<humidity &le; 0.657<br/>mse = 4.0<br/>samples = 2<br/>value = 1528.0>, fillcolor="#e5813924"] ;
79 -> 81 ;
82 [label=<mse = 0.0<br/>samples = 1<br/>value = 1530.0>, fillcolor="#e5813924"] ;
81 -> 82 ;
83 [label=<mse = 0.0<br/>samples = 1<br/>value = 1526.0>, fillcolor="#e5813924"] ;
81 -> 83 ;
84 [label=<atemp &le; 0.29<br/>mse = 15305.0<br/>samples = 4<br/>value = 1620.0>, fillcolor="#e5813927"] ;
72 -> 84 ;
85 [label=<mse = 0.0<br/>samples = 1<br/>value = 1807.0>, fillcolor="#e581392d"] ;
84 -> 85 ;
86 [label=<workingday &le; 0.5<br/>mse = 4864.889<br/>samples = 3<br/>value = 1557.667>, fillcolor="#e5813925"] ;
84 -> 86 ;
87 [label=<windspeed &le; 0.201<br/>mse = 289.0<br/>samples = 2<br/>value = 1606.0>, fillcolor="#e5813927"] ;
86 -> 87 ;
88 [label=<mse = 0.0<br/>samples = 1<br/>value = 1623.0>, fillcolor="#e5813927"] ;
87 -> 88 ;
89 [label=<mse = 0.0<br/>samples = 1<br/>value = 1589.0>, fillcolor="#e5813926"] ;
87 -> 89 ;
90 [label=<mse = 0.0<br/>samples = 1<br/>value = 1461.0>, fillcolor="#e5813922"] ;
86 -> 90 ;
91 [label=<mse = 0.0<br/>samples = 1<br/>value = 1360.0>, fillcolor="#e581391f"] ;
67 -> 91 ;
92 [label=<mse = 0.0<br/>samples = 1<br/>value = 1107.0>, fillcolor="#e5813916"] ;
66 -> 92 ;
93 [label=<windspeed &le; 0.136<br/>mse = 217677.769<br/>samples = 29<br/>value = 1970.759>, fillcolor="#e5813933"] ;
59 -> 93 ;
94 [label=<windspeed &le; 0.134<br/>mse = 97904.75<br/>samples = 4<br/>value = 2502.5>, fillcolor="#e5813944"] ;
93 -> 94 ;
95 [label=<humidity &le; 0.498<br/>mse = 20978.667<br/>samples = 3<br/>value = 2337.0>, fillcolor="#e581393f"] ;
94 -> 95 ;
96 [label=<mse = 0.0<br/>samples = 1<br/>value = 2133.0>, fillcolor="#e5813938"] ;
95 -> 96 ;
97 [label=<season &le; 1.5<br/>mse = 256.0<br/>samples = 2<br/>value = 2439.0>, fillcolor="#e5813942"] ;
95 -> 97 ;
98 [label=<mse = 0.0<br/>samples = 1<br/>value = 2423.0>, fillcolor="#e5813942"] ;
97 -> 98 ;
99 [label=<mse = 0.0<br/>samples = 1<br/>value = 2455.0>, fillcolor="#e5813943"] ;
97 -> 99 ;
100 [label=<mse = 0.0<br/>samples = 1<br/>value = 2999.0>, fillcolor="#e5813955"] ;
94 -> 100 ;
101 [label=<month &le; 8.0<br/>mse = 184363.258<br/>samples = 25<br/>value = 1885.68>, fillcolor="#e5813930"] ;
93 -> 101 ;
102 [label=<weather_type &le; 1.5<br/>mse = 77310.267<br/>samples = 22<br/>value = 2009.773>, fillcolor="#e5813934"] ;
101 -> 102 ;
103 [label=<atemp &le; 0.247<br/>mse = 62177.09<br/>samples = 10<br/>value = 2149.9>, fillcolor="#e5813939"] ;
102 -> 103 ;
104 [label=<humidity &le; 0.435<br/>mse = 8742.25<br/>samples = 2<br/>value = 1778.5>, fillcolor="#e581392c"] ;
103 -> 104 ;
105 [label=<mse = 0.0<br/>samples = 1<br/>value = 1685.0>, fillcolor="#e5813929"] ;
104 -> 105 ;
106 [label=<mse = 0.0<br/>samples = 1<br/>value = 1872.0>, fillcolor="#e581392f"] ;
104 -> 106 ;
107 [label=<workingday &le; 0.5<br/>mse = 32430.188<br/>samples = 8<br/>value = 2242.75>, fillcolor="#e581393c"] ;
103 -> 107 ;
108 [label=<humidity &le; 0.534<br/>mse = 27560.222<br/>samples = 3<br/>value = 2366.333>, fillcolor="#e5813940"] ;
107 -> 108 ;
109 [label=<windspeed &le; 0.209<br/>mse = 156.25<br/>samples = 2<br/>value = 2483.5>, fillcolor="#e5813944"] ;
108 -> 109 ;
110 [label=<mse = 0.0<br/>samples = 1<br/>value = 2471.0>, fillcolor="#e5813943"] ;
109 -> 110 ;
111 [label=<mse = 0.0<br/>samples = 1<br/>value = 2496.0>, fillcolor="#e5813944"] ;
109 -> 111 ;
112 [label=<mse = 0.0<br/>samples = 1<br/>value = 2132.0>, fillcolor="#e5813938"] ;
108 -> 112 ;
113 [label=<windspeed &le; 0.22<br/>mse = 20690.24<br/>samples = 5<br/>value = 2168.6>, fillcolor="#e5813939"] ;
107 -> 113 ;
114 [label=<windspeed &le; 0.175<br/>mse = 81.0<br/>samples = 2<br/>value = 2037.0>, fillcolor="#e5813935"] ;
113 -> 114 ;
115 [label=<mse = 0.0<br/>samples = 1<br/>value = 2046.0>, fillcolor="#e5813935"] ;
114 -> 115 ;
116 [label=<mse = 0.0<br/>samples = 1<br/>value = 2028.0>, fillcolor="#e5813935"] ;
114 -> 116 ;
117 [label=<humidity &le; 0.382<br/>mse = 15186.889<br/>samples = 3<br/>value = 2256.333>, fillcolor="#e581393c"] ;
113 -> 117 ;
118 [label=<mse = 0.0<br/>samples = 1<br/>value = 2425.0>, fillcolor="#e5813942"] ;
117 -> 118 ;
119 [label=<season &le; 1.5<br/>mse = 1444.0<br/>samples = 2<br/>value = 2172.0>, fillcolor="#e5813939"] ;
117 -> 119 ;
120 [label=<mse = 0.0<br/>samples = 1<br/>value = 2134.0>, fillcolor="#e5813938"] ;
119 -> 120 ;
121 [label=<mse = 0.0<br/>samples = 1<br/>value = 2210.0>, fillcolor="#e581393b"] ;
119 -> 121 ;
122 [label=<windspeed &le; 0.184<br/>mse = 59922.333<br/>samples = 12<br/>value = 1893.0>, fillcolor="#e5813930"] ;
102 -> 122 ;
123 [label=<workingday &le; 0.5<br/>mse = 6162.25<br/>samples = 2<br/>value = 1614.5>, fillcolor="#e5813927"] ;
122 -> 123 ;
124 [label=<mse = 0.0<br/>samples = 1<br/>value = 1693.0>, fillcolor="#e581392a"] ;
123 -> 124 ;
125 [label=<mse = 0.0<br/>samples = 1<br/>value = 1536.0>, fillcolor="#e5813924"] ;
123 -> 125 ;
126 [label=<humidity &le; 0.708<br/>mse = 52059.41<br/>samples = 10<br/>value = 1948.7>, fillcolor="#e5813932"] ;
122 -> 126 ;
127 [label=<season &le; 1.5<br/>mse = 16049.36<br/>samples = 5<br/>value = 2091.2>, fillcolor="#e5813937"] ;
126 -> 127 ;
128 [label=<atemp &le; 0.312<br/>mse = 2208.222<br/>samples = 3<br/>value = 1992.333>, fillcolor="#e5813933"] ;
127 -> 128 ;
129 [label=<atemp &le; 0.28<br/>mse = 272.25<br/>samples = 2<br/>value = 1960.5>, fillcolor="#e5813932"] ;
128 -> 129 ;
130 [label=<mse = 0.0<br/>samples = 1<br/>value = 1944.0>, fillcolor="#e5813932"] ;
129 -> 130 ;
131 [label=<mse = 0.0<br/>samples = 1<br/>value = 1977.0>, fillcolor="#e5813933"] ;
129 -> 131 ;
132 [label=<mse = 0.0<br/>samples = 1<br/>value = 2056.0>, fillcolor="#e5813936"] ;
128 -> 132 ;
133 [label=<atemp &le; 0.3<br/>mse = 156.25<br/>samples = 2<br/>value = 2239.5>, fillcolor="#e581393c"] ;
127 -> 133 ;
134 [label=<mse = 0.0<br/>samples = 1<br/>value = 2227.0>, fillcolor="#e581393b"] ;
133 -> 134 ;
135 [label=<mse = 0.0<br/>samples = 1<br/>value = 2252.0>, fillcolor="#e581393c"] ;
133 -> 135 ;
136 [label=<weekday &le; 4.5<br/>mse = 47456.96<br/>samples = 5<br/>value = 1806.2>, fillcolor="#e581392d"] ;
126 -> 136 ;
137 [label=<atemp &le; 0.312<br/>mse = 13234.667<br/>samples = 3<br/>value = 1959.0>, fillcolor="#e5813932"] ;
136 -> 137 ;
138 [label=<weekday &le; 3.5<br/>mse = 169.0<br/>samples = 2<br/>value = 1878.0>, fillcolor="#e5813930"] ;
137 -> 138 ;
139 [label=<mse = 0.0<br/>samples = 1<br/>value = 1891.0>, fillcolor="#e5813930"] ;
138 -> 139 ;
140 [label=<mse = 0.0<br/>samples = 1<br/>value = 1865.0>, fillcolor="#e581392f"] ;
138 -> 140 ;
141 [label=<mse = 0.0<br/>samples = 1<br/>value = 2121.0>, fillcolor="#e5813938"] ;
137 -> 141 ;
142 [label=<atemp &le; 0.323<br/>mse = 11236.0<br/>samples = 2<br/>value = 1577.0>, fillcolor="#e5813926"] ;
136 -> 142 ;
143 [label=<mse = 0.0<br/>samples = 1<br/>value = 1683.0>, fillcolor="#e5813929"] ;
142 -> 143 ;
144 [label=<mse = 0.0<br/>samples = 1<br/>value = 1471.0>, fillcolor="#e5813922"] ;
142 -> 144 ;
145 [label=<atemp &le; 0.29<br/>mse = 28368.222<br/>samples = 3<br/>value = 975.667>, fillcolor="#e5813912"] ;
101 -> 145 ;
146 [label=<mse = 0.0<br/>samples = 1<br/>value = 754.0>, fillcolor="#e581390b"] ;
145 -> 146 ;
147 [label=<weather_type &le; 1.5<br/>mse = 5700.25<br/>samples = 2<br/>value = 1086.5>, fillcolor="#e5813916"] ;
145 -> 147 ;
148 [label=<mse = 0.0<br/>samples = 1<br/>value = 1011.0>, fillcolor="#e5813913"] ;
147 -> 148 ;
149 [label=<mse = 0.0<br/>samples = 1<br/>value = 1162.0>, fillcolor="#e5813918"] ;
147 -> 149 ;
150 [label=<month &le; 3.5<br/>mse = 189577.945<br/>samples = 17<br/>value = 2386.235>, fillcolor="#e5813940"] ;
58 -> 150 ;
151 [label=<humidity &le; 0.833<br/>mse = 151671.951<br/>samples = 9<br/>value = 2162.778>, fillcolor="#e5813939"] ;
150 -> 151 ;
152 [label=<humidity &le; 0.484<br/>mse = 98381.984<br/>samples = 8<br/>value = 2252.375>, fillcolor="#e581393c"] ;
151 -> 152 ;
153 [label=<mse = 0.0<br/>samples = 1<br/>value = 1635.0>, fillcolor="#e5813928"] ;
152 -> 153 ;
154 [label=<weather_type &le; 1.5<br/>mse = 50207.673<br/>samples = 7<br/>value = 2340.571>, fillcolor="#e581393f"] ;
152 -> 154 ;
155 [label=<workingday &le; 0.5<br/>mse = 19073.25<br/>samples = 4<br/>value = 2509.5>, fillcolor="#e5813944"] ;
154 -> 155 ;
156 [label=<atemp &le; 0.366<br/>mse = 56.25<br/>samples = 2<br/>value = 2409.5>, fillcolor="#e5813941"] ;
155 -> 156 ;
157 [label=<mse = 0.0<br/>samples = 1<br/>value = 2402.0>, fillcolor="#e5813941"] ;
156 -> 157 ;
158 [label=<mse = 0.0<br/>samples = 1<br/>value = 2417.0>, fillcolor="#e5813941"] ;
156 -> 158 ;
159 [label=<month &le; 2.5<br/>mse = 18090.25<br/>samples = 2<br/>value = 2609.5>, fillcolor="#e5813948"] ;
155 -> 159 ;
160 [label=<mse = 0.0<br/>samples = 1<br/>value = 2475.0>, fillcolor="#e5813943"] ;
159 -> 160 ;
161 [label=<mse = 0.0<br/>samples = 1<br/>value = 2744.0>, fillcolor="#e581394c"] ;
159 -> 161 ;
162 [label=<atemp &le; 0.373<br/>mse = 2938.889<br/>samples = 3<br/>value = 2115.333>, fillcolor="#e5813937"] ;
154 -> 162 ;
163 [label=<mse = 0.0<br/>samples = 1<br/>value = 2192.0>, fillcolor="#e581393a"] ;
162 -> 163 ;
164 [label=<mse = 0.0<br/>samples = 2<br/>value = 2077.0>, fillcolor="#e5813936"] ;
162 -> 164 ;
165 [label=<mse = 0.0<br/>samples = 1<br/>value = 1446.0>, fillcolor="#e5813921"] ;
151 -> 165 ;
166 [label=<weekday &le; 1.5<br/>mse = 112850.484<br/>samples = 8<br/>value = 2637.625>, fillcolor="#e5813949"] ;
150 -> 166 ;
167 [label=<humidity &le; 0.669<br/>mse = 31329.0<br/>samples = 2<br/>value = 3072.0>, fillcolor="#e5813957"] ;
166 -> 167 ;
168 [label=<mse = 0.0<br/>samples = 1<br/>value = 3249.0>, fillcolor="#e581395d"] ;
167 -> 168 ;
169 [label=<mse = 0.0<br/>samples = 1<br/>value = 2895.0>, fillcolor="#e5813951"] ;
167 -> 169 ;
170 [label=<humidity &le; 0.543<br/>mse = 56165.806<br/>samples = 6<br/>value = 2492.833>, fillcolor="#e5813944"] ;
166 -> 170 ;
171 [label=<mse = 0.0<br/>samples = 1<br/>value = 2808.0>, fillcolor="#e581394e"] ;
170 -> 171 ;
172 [label=<month &le; 4.5<br/>mse = 43559.76<br/>samples = 5<br/>value = 2429.8>, fillcolor="#e5813942"] ;
170 -> 172 ;
173 [label=<mse = 0.0<br/>samples = 1<br/>value = 2162.0>, fillcolor="#e5813939"] ;
172 -> 173 ;
174 [label=<atemp &le; 0.391<br/>mse = 32038.188<br/>samples = 4<br/>value = 2496.75>, fillcolor="#e5813944"] ;
172 -> 174 ;
175 [label=<mse = 0.0<br/>samples = 1<br/>value = 2209.0>, fillcolor="#e581393b"] ;
174 -> 175 ;
176 [label=<windspeed &le; 0.221<br/>mse = 5917.556<br/>samples = 3<br/>value = 2592.667>, fillcolor="#e5813947"] ;
174 -> 176 ;
177 [label=<mse = 0.0<br/>samples = 1<br/>value = 2485.0>, fillcolor="#e5813944"] ;
176 -> 177 ;
178 [label=<season &le; 1.5<br/>mse = 182.25<br/>samples = 2<br/>value = 2646.5>, fillcolor="#e5813949"] ;
176 -> 178 ;
179 [label=<mse = 0.0<br/>samples = 1<br/>value = 2660.0>, fillcolor="#e5813949"] ;
178 -> 179 ;
180 [label=<mse = 0.0<br/>samples = 1<br/>value = 2633.0>, fillcolor="#e5813949"] ;
178 -> 180 ;
181 [label=<windspeed &le; 0.24<br/>mse = 197022.0<br/>samples = 4<br/>value = 927.0>, fillcolor="#e5813910"] ;
57 -> 181 ;
182 [label=<mse = 0.0<br/>samples = 1<br/>value = 1685.0>, fillcolor="#e5813929"] ;
181 -> 182 ;
183 [label=<month &le; 3.5<br/>mse = 7334.222<br/>samples = 3<br/>value = 674.333>, fillcolor="#e5813908"] ;
181 -> 183 ;
184 [label=<humidity &le; 0.925<br/>mse = 81.0<br/>samples = 2<br/>value = 614.0>, fillcolor="#e5813906"] ;
183 -> 184 ;
185 [label=<mse = 0.0<br/>samples = 1<br/>value = 623.0>, fillcolor="#e5813906"] ;
184 -> 185 ;
186 [label=<mse = 0.0<br/>samples = 1<br/>value = 605.0>, fillcolor="#e5813906"] ;
184 -> 186 ;
187 [label=<mse = 0.0<br/>samples = 1<br/>value = 795.0>, fillcolor="#e581390c"] ;
183 -> 187 ;
188 [label=<humidity &le; 0.855<br/>mse = 756728.653<br/>samples = 41<br/>value = 3282.073>, fillcolor="#e581395e"] ;
2 -> 188 ;
189 [label=<holiday &le; 0.5<br/>mse = 349309.659<br/>samples = 38<br/>value = 3463.842>, fillcolor="#e5813964"] ;
188 -> 189 ;
190 [label=<atemp &le; 0.263<br/>mse = 257495.212<br/>samples = 36<br/>value = 3521.194>, fillcolor="#e5813966"] ;
189 -> 190 ;
191 [label=<humidity &le; 0.574<br/>mse = 21358.222<br/>samples = 3<br/>value = 2637.667>, fillcolor="#e5813949"] ;
190 -> 191 ;
192 [label=<windspeed &le; 0.155<br/>mse = 4.0<br/>samples = 2<br/>value = 2741.0>, fillcolor="#e581394c"] ;
191 -> 192 ;
193 [label=<mse = 0.0<br/>samples = 1<br/>value = 2743.0>, fillcolor="#e581394c"] ;
192 -> 193 ;
194 [label=<mse = 0.0<br/>samples = 1<br/>value = 2739.0>, fillcolor="#e581394c"] ;
192 -> 194 ;
195 [label=<mse = 0.0<br/>samples = 1<br/>value = 2431.0>, fillcolor="#e5813942"] ;
191 -> 195 ;
196 [label=<windspeed &le; 0.287<br/>mse = 201545.219<br/>samples = 33<br/>value = 3601.515>, fillcolor="#e5813968"] ;
190 -> 196 ;
197 [label=<atemp &le; 0.397<br/>mse = 121658.507<br/>samples = 30<br/>value = 3693.4>, fillcolor="#e581396b"] ;
196 -> 197 ;
198 [label=<atemp &le; 0.368<br/>mse = 94375.514<br/>samples = 22<br/>value = 3572.409>, fillcolor="#e5813967"] ;
197 -> 198 ;
199 [label=<weekday &le; 5.5<br/>mse = 35805.527<br/>samples = 16<br/>value = 3666.812>, fillcolor="#e581396b"] ;
198 -> 199 ;
200 [label=<workingday &le; 0.5<br/>mse = 24037.467<br/>samples = 13<br/>value = 3616.385>, fillcolor="#e5813969"] ;
199 -> 200 ;
201 [label=<atemp &le; 0.356<br/>mse = 16859.556<br/>samples = 3<br/>value = 3488.333>, fillcolor="#e5813965"] ;
200 -> 201 ;
202 [label=<atemp &le; 0.335<br/>mse = 5929.0<br/>samples = 2<br/>value = 3408.0>, fillcolor="#e5813962"] ;
201 -> 202 ;
203 [label=<mse = 0.0<br/>samples = 1<br/>value = 3331.0>, fillcolor="#e5813960"] ;
202 -> 203 ;
204 [label=<mse = 0.0<br/>samples = 1<br/>value = 3485.0>, fillcolor="#e5813965"] ;
202 -> 204 ;
205 [label=<mse = 0.0<br/>samples = 1<br/>value = 3649.0>, fillcolor="#e581396a"] ;
201 -> 205 ;
206 [label=<atemp &le; 0.303<br/>mse = 19795.96<br/>samples = 10<br/>value = 3654.8>, fillcolor="#e581396a"] ;
200 -> 206 ;
207 [label=<atemp &le; 0.287<br/>mse = 4290.25<br/>samples = 2<br/>value = 3457.5>, fillcolor="#e5813964"] ;
206 -> 207 ;
208 [label=<mse = 0.0<br/>samples = 1<br/>value = 3392.0>, fillcolor="#e5813962"] ;
207 -> 208 ;
209 [label=<mse = 0.0<br/>samples = 1<br/>value = 3523.0>, fillcolor="#e5813966"] ;
207 -> 209 ;
210 [label=<windspeed &le; 0.245<br/>mse = 11507.609<br/>samples = 8<br/>value = 3704.125>, fillcolor="#e581396c"] ;
206 -> 210 ;
211 [label=<humidity &le; 0.68<br/>mse = 9942.917<br/>samples = 6<br/>value = 3740.5>, fillcolor="#e581396d"] ;
210 -> 211 ;
212 [label=<weekday &le; 4.5<br/>mse = 7702.25<br/>samples = 4<br/>value = 3788.5>, fillcolor="#e581396f"] ;
211 -> 212 ;
213 [label=<weather_type &le; 1.5<br/>mse = 42.25<br/>samples = 2<br/>value = 3733.5>, fillcolor="#e581396d"] ;
212 -> 213 ;
214 [label=<mse = 0.0<br/>samples = 1<br/>value = 3727.0>, fillcolor="#e581396d"] ;
213 -> 214 ;
215 [label=<mse = 0.0<br/>samples = 1<br/>value = 3740.0>, fillcolor="#e581396d"] ;
213 -> 215 ;
216 [label=<humidity &le; 0.606<br/>mse = 9312.25<br/>samples = 2<br/>value = 3843.5>, fillcolor="#e5813970"] ;
212 -> 216 ;
217 [label=<mse = 0.0<br/>samples = 1<br/>value = 3747.0>, fillcolor="#e581396d"] ;
216 -> 217 ;
218 [label=<mse = 0.0<br/>samples = 1<br/>value = 3940.0>, fillcolor="#e5813974"] ;
216 -> 218 ;
219 [label=<windspeed &le; 0.095<br/>mse = 600.25<br/>samples = 2<br/>value = 3644.5>, fillcolor="#e581396a"] ;
211 -> 219 ;
220 [label=<mse = 0.0<br/>samples = 1<br/>value = 3620.0>, fillcolor="#e5813969"] ;
219 -> 220 ;
221 [label=<mse = 0.0<br/>samples = 1<br/>value = 3669.0>, fillcolor="#e581396b"] ;
219 -> 221 ;
222 [label=<month &le; 11.5<br/>mse = 324.0<br/>samples = 2<br/>value = 3595.0>, fillcolor="#e5813968"] ;
210 -> 222 ;
223 [label=<mse = 0.0<br/>samples = 1<br/>value = 3613.0>, fillcolor="#e5813969"] ;
222 -> 223 ;
224 [label=<mse = 0.0<br/>samples = 1<br/>value = 3577.0>, fillcolor="#e5813968"] ;
222 -> 224 ;
225 [label=<windspeed &le; 0.218<br/>mse = 28029.556<br/>samples = 3<br/>value = 3885.333>, fillcolor="#e5813972"] ;
199 -> 225 ;
226 [label=<atemp &le; 0.341<br/>mse = 4970.25<br/>samples = 2<br/>value = 3996.5>, fillcolor="#e5813975"] ;
225 -> 226 ;
227 [label=<mse = 0.0<br/>samples = 1<br/>value = 3926.0>, fillcolor="#e5813973"] ;
226 -> 227 ;
228 [label=<mse = 0.0<br/>samples = 1<br/>value = 4067.0>, fillcolor="#e5813978"] ;
226 -> 228 ;
229 [label=<mse = 0.0<br/>samples = 1<br/>value = 3663.0>, fillcolor="#e581396a"] ;
225 -> 229 ;
230 [label=<weekday &le; 3.0<br/>mse = 163422.556<br/>samples = 6<br/>value = 3320.667>, fillcolor="#e581395f"] ;
198 -> 230 ;
231 [label=<windspeed &le; 0.073<br/>mse = 10466.889<br/>samples = 3<br/>value = 3710.333>, fillcolor="#e581396c"] ;
230 -> 231 ;
232 [label=<weekday &le; 1.5<br/>mse = 930.25<br/>samples = 2<br/>value = 3780.5>, fillcolor="#e581396e"] ;
231 -> 232 ;
233 [label=<mse = 0.0<br/>samples = 1<br/>value = 3811.0>, fillcolor="#e581396f"] ;
232 -> 233 ;
234 [label=<mse = 0.0<br/>samples = 1<br/>value = 3750.0>, fillcolor="#e581396d"] ;
232 -> 234 ;
235 [label=<mse = 0.0<br/>samples = 1<br/>value = 3570.0>, fillcolor="#e5813967"] ;
231 -> 235 ;
236 [label=<humidity &le; 0.663<br/>mse = 12698.0<br/>samples = 3<br/>value = 2931.0>, fillcolor="#e5813952"] ;
230 -> 236 ;
237 [label=<mse = 0.0<br/>samples = 1<br/>value = 2792.0>, fillcolor="#e581394e"] ;
236 -> 237 ;
238 [label=<weekday &le; 5.0<br/>mse = 4556.25<br/>samples = 2<br/>value = 3000.5>, fillcolor="#e5813955"] ;
236 -> 238 ;
239 [label=<mse = 0.0<br/>samples = 1<br/>value = 2933.0>, fillcolor="#e5813952"] ;
238 -> 239 ;
240 [label=<mse = 0.0<br/>samples = 1<br/>value = 3068.0>, fillcolor="#e5813957"] ;
238 -> 240 ;
241 [label=<windspeed &le; 0.136<br/>mse = 45724.109<br/>samples = 8<br/>value = 4026.125>, fillcolor="#e5813976"] ;
197 -> 241 ;
242 [label=<month &le; 10.5<br/>mse = 14537.188<br/>samples = 4<br/>value = 4190.75>, fillcolor="#e581397c"] ;
241 -> 242 ;
243 [label=<mse = 0.0<br/>samples = 1<br/>value = 4381.0>, fillcolor="#e5813982"] ;
242 -> 243 ;
244 [label=<atemp &le; 0.411<br/>mse = 3296.222<br/>samples = 3<br/>value = 4127.333>, fillcolor="#e581397a"] ;
242 -> 244 ;
245 [label=<humidity &le; 0.721<br/>mse = 420.25<br/>samples = 2<br/>value = 4088.5>, fillcolor="#e5813978"] ;
244 -> 245 ;
246 [label=<mse = 0.0<br/>samples = 1<br/>value = 4068.0>, fillcolor="#e5813978"] ;
245 -> 246 ;
247 [label=<mse = 0.0<br/>samples = 1<br/>value = 4109.0>, fillcolor="#e5813979"] ;
245 -> 247 ;
248 [label=<mse = 0.0<br/>samples = 1<br/>value = 4205.0>, fillcolor="#e581397c"] ;
244 -> 248 ;
249 [label=<atemp &le; 0.409<br/>mse = 22708.25<br/>samples = 4<br/>value = 3861.5>, fillcolor="#e5813971"] ;
241 -> 249 ;
250 [label=<windspeed &le; 0.204<br/>mse = 1296.0<br/>samples = 2<br/>value = 4010.0>, fillcolor="#e5813976"] ;
249 -> 250 ;
251 [label=<mse = 0.0<br/>samples = 1<br/>value = 3974.0>, fillcolor="#e5813975"] ;
250 -> 251 ;
252 [label=<mse = 0.0<br/>samples = 1<br/>value = 4046.0>, fillcolor="#e5813977"] ;
250 -> 252 ;
253 [label=<month &le; 11.5<br/>mse = 16.0<br/>samples = 2<br/>value = 3713.0>, fillcolor="#e581396c"] ;
249 -> 253 ;
254 [label=<mse = 0.0<br/>samples = 1<br/>value = 3717.0>, fillcolor="#e581396c"] ;
253 -> 254 ;
255 [label=<mse = 0.0<br/>samples = 1<br/>value = 3709.0>, fillcolor="#e581396c"] ;
253 -> 255 ;
256 [label=<atemp &le; 0.368<br/>mse = 71701.556<br/>samples = 3<br/>value = 2682.667>, fillcolor="#e581394a"] ;
196 -> 256 ;
257 [label=<mse = 0.0<br/>samples = 1<br/>value = 3053.0>, fillcolor="#e5813956"] ;
256 -> 257 ;
258 [label=<humidity &le; 0.756<br/>mse = 4692.25<br/>samples = 2<br/>value = 2497.5>, fillcolor="#e5813944"] ;
256 -> 258 ;
259 [label=<mse = 0.0<br/>samples = 1<br/>value = 2429.0>, fillcolor="#e5813942"] ;
258 -> 259 ;
260 [label=<mse = 0.0<br/>samples = 1<br/>value = 2566.0>, fillcolor="#e5813946"] ;
258 -> 260 ;
261 [label=<windspeed &le; 0.241<br/>mse = 877032.25<br/>samples = 2<br/>value = 2431.5>, fillcolor="#e5813942"] ;
189 -> 261 ;
262 [label=<mse = 0.0<br/>samples = 1<br/>value = 1495.0>, fillcolor="#e5813923"] ;
261 -> 262 ;
263 [label=<mse = 0.0<br/>samples = 1<br/>value = 3368.0>, fillcolor="#e5813961"] ;
261 -> 263 ;
264 [label=<weekday &le; 2.5<br/>mse = 197787.556<br/>samples = 3<br/>value = 979.667>, fillcolor="#e5813912"] ;
188 -> 264 ;
265 [label=<mse = 0.0<br/>samples = 1<br/>value = 1607.0>, fillcolor="#e5813927"] ;
264 -> 265 ;
266 [label=<windspeed &le; 0.309<br/>mse = 1521.0<br/>samples = 2<br/>value = 666.0>, fillcolor="#e5813908"] ;
264 -> 266 ;
267 [label=<mse = 0.0<br/>samples = 1<br/>value = 705.0>, fillcolor="#e5813909"] ;
266 -> 267 ;
268 [label=<mse = 0.0<br/>samples = 1<br/>value = 627.0>, fillcolor="#e5813906"] ;
266 -> 268 ;
269 [label=<season &le; 1.5<br/>mse = 2052860.621<br/>samples = 116<br/>value = 4013.821>, fillcolor="#e5813976"] ;
1 -> 269 ;
270 [label=<atemp &le; 0.295<br/>mse = 994386.643<br/>samples = 62<br/>value = 3202.661>, fillcolor="#e581395b"] ;
269 -> 270 ;
271 [label=<humidity &le; 0.727<br/>mse = 535964.676<br/>samples = 31<br/>value = 2478.032>, fillcolor="#e5813943"] ;
270 -> 271 ;
272 [label=<atemp &le; 0.27<br/>mse = 391425.028<br/>samples = 23<br/>value = 2695.565>, fillcolor="#e581394b"] ;
271 -> 272 ;
273 [label=<workingday &le; 0.5<br/>mse = 299595.773<br/>samples = 19<br/>value = 2538.737>, fillcolor="#e5813945"] ;
272 -> 273 ;
274 [label=<weather_type &le; 1.5<br/>mse = 194547.877<br/>samples = 9<br/>value = 2200.111>, fillcolor="#e581393a"] ;
273 -> 274 ;
275 [label=<month &le; 1.5<br/>mse = 105130.245<br/>samples = 7<br/>value = 2023.571>, fillcolor="#e5813934"] ;
274 -> 275 ;
276 [label=<humidity &le; 0.4<br/>mse = 38443.188<br/>samples = 4<br/>value = 2263.25>, fillcolor="#e581393c"] ;
275 -> 276 ;
277 [label=<mse = 0.0<br/>samples = 1<br/>value = 1951.0>, fillcolor="#e5813932"] ;
276 -> 277 ;
278 [label=<weekday &le; 3.5<br/>mse = 7924.222<br/>samples = 3<br/>value = 2367.333>, fillcolor="#e5813940"] ;
276 -> 278 ;
279 [label=<humidity &le; 0.471<br/>mse = 42.25<br/>samples = 2<br/>value = 2304.5>, fillcolor="#e581393e"] ;
278 -> 279 ;
280 [label=<mse = 0.0<br/>samples = 1<br/>value = 2311.0>, fillcolor="#e581393e"] ;
279 -> 280 ;
281 [label=<mse = 0.0<br/>samples = 1<br/>value = 2298.0>, fillcolor="#e581393d"] ;
279 -> 281 ;
282 [label=<mse = 0.0<br/>samples = 1<br/>value = 2493.0>, fillcolor="#e5813944"] ;
278 -> 282 ;
283 [label=<month &le; 7.0<br/>mse = 15326.0<br/>samples = 3<br/>value = 1704.0>, fillcolor="#e581392a"] ;
275 -> 283 ;
284 [label=<mse = 0.0<br/>samples = 1<br/>value = 1529.0>, fillcolor="#e5813924"] ;
283 -> 284 ;
285 [label=<atemp &le; 0.246<br/>mse = 20.25<br/>samples = 2<br/>value = 1791.5>, fillcolor="#e581392d"] ;
283 -> 285 ;
286 [label=<mse = 0.0<br/>samples = 1<br/>value = 1796.0>, fillcolor="#e581392d"] ;
285 -> 286 ;
287 [label=<mse = 0.0<br/>samples = 1<br/>value = 1787.0>, fillcolor="#e581392d"] ;
285 -> 287 ;
288 [label=<atemp &le; 0.265<br/>mse = 16641.0<br/>samples = 2<br/>value = 2818.0>, fillcolor="#e581394f"] ;
274 -> 288 ;
289 [label=<mse = 0.0<br/>samples = 1<br/>value = 2947.0>, fillcolor="#e5813953"] ;
288 -> 289 ;
290 [label=<mse = 0.0<br/>samples = 1<br/>value = 2689.0>, fillcolor="#e581394a"] ;
288 -> 290 ;
291 [label=<atemp &le; 0.158<br/>mse = 198057.65<br/>samples = 10<br/>value = 2843.5>, fillcolor="#e581394f"] ;
273 -> 291 ;
292 [label=<windspeed &le; 0.275<br/>mse = 4356.0<br/>samples = 2<br/>value = 2302.0>, fillcolor="#e581393e"] ;
291 -> 292 ;
293 [label=<mse = 0.0<br/>samples = 1<br/>value = 2368.0>, fillcolor="#e5813940"] ;
292 -> 293 ;
294 [label=<mse = 0.0<br/>samples = 1<br/>value = 2236.0>, fillcolor="#e581393b"] ;
292 -> 294 ;
295 [label=<humidity &le; 0.621<br/>mse = 154851.109<br/>samples = 8<br/>value = 2978.875>, fillcolor="#e5813954"] ;
291 -> 295 ;
296 [label=<windspeed &le; 0.155<br/>mse = 46440.25<br/>samples = 6<br/>value = 3152.5>, fillcolor="#e581395a"] ;
295 -> 296 ;
297 [label=<mse = 0.0<br/>samples = 1<br/>value = 2729.0>, fillcolor="#e581394c"] ;
296 -> 297 ;
298 [label=<weekday &le; 4.5<br/>mse = 12683.76<br/>samples = 5<br/>value = 3237.2>, fillcolor="#e581395c"] ;
296 -> 298 ;
299 [label=<weekday &le; 2.5<br/>mse = 4225.0<br/>samples = 2<br/>value = 3357.0>, fillcolor="#e5813960"] ;
298 -> 299 ;
300 [label=<mse = 0.0<br/>samples = 1<br/>value = 3422.0>, fillcolor="#e5813963"] ;
299 -> 300 ;
301 [label=<mse = 0.0<br/>samples = 1<br/>value = 3292.0>, fillcolor="#e581395e"] ;
299 -> 301 ;
302 [label=<month &le; 6.5<br/>mse = 2376.222<br/>samples = 3<br/>value = 3157.333>, fillcolor="#e581395a"] ;
298 -> 302 ;
303 [label=<humidity &le; 0.479<br/>mse = 650.25<br/>samples = 2<br/>value = 3188.5>, fillcolor="#e581395b"] ;
302 -> 303 ;
304 [label=<mse = 0.0<br/>samples = 1<br/>value = 3163.0>, fillcolor="#e581395a"] ;
303 -> 304 ;
305 [label=<mse = 0.0<br/>samples = 1<br/>value = 3214.0>, fillcolor="#e581395c"] ;
303 -> 305 ;
306 [label=<mse = 0.0<br/>samples = 1<br/>value = 3095.0>, fillcolor="#e5813958"] ;
302 -> 306 ;
307 [label=<humidity &le; 0.688<br/>mse = 118336.0<br/>samples = 2<br/>value = 2458.0>, fillcolor="#e5813943"] ;
295 -> 307 ;
308 [label=<mse = 0.0<br/>samples = 1<br/>value = 2114.0>, fillcolor="#e5813937"] ;
307 -> 308 ;
309 [label=<mse = 0.0<br/>samples = 1<br/>value = 2802.0>, fillcolor="#e581394e"] ;
307 -> 309 ;
310 [label=<weekday &le; 5.0<br/>mse = 155859.25<br/>samples = 4<br/>value = 3440.5>, fillcolor="#e5813963"] ;
272 -> 310 ;
311 [label=<month &le; 1.5<br/>mse = 3809.556<br/>samples = 3<br/>value = 3214.667>, fillcolor="#e581395c"] ;
310 -> 311 ;
312 [label=<windspeed &le; 0.185<br/>mse = 210.25<br/>samples = 2<br/>value = 3257.5>, fillcolor="#e581395d"] ;
311 -> 312 ;
313 [label=<mse = 0.0<br/>samples = 1<br/>value = 3272.0>, fillcolor="#e581395e"] ;
312 -> 313 ;
314 [label=<mse = 0.0<br/>samples = 1<br/>value = 3243.0>, fillcolor="#e581395d"] ;
312 -> 314 ;
315 [label=<mse = 0.0<br/>samples = 1<br/>value = 3129.0>, fillcolor="#e5813959"] ;
311 -> 315 ;
316 [label=<mse = 0.0<br/>samples = 1<br/>value = 4118.0>, fillcolor="#e5813979"] ;
310 -> 316 ;
317 [label=<month &le; 7.0<br/>mse = 424335.234<br/>samples = 8<br/>value = 1852.625>, fillcolor="#e581392f"] ;
271 -> 317 ;
318 [label=<atemp &le; 0.193<br/>mse = 216074.0<br/>samples = 6<br/>value = 2148.0>, fillcolor="#e5813939"] ;
317 -> 318 ;
319 [label=<windspeed &le; 0.211<br/>mse = 114244.0<br/>samples = 2<br/>value = 1639.0>, fillcolor="#e5813928"] ;
318 -> 319 ;
320 [label=<mse = 0.0<br/>samples = 1<br/>value = 1977.0>, fillcolor="#e5813933"] ;
319 -> 320 ;
321 [label=<mse = 0.0<br/>samples = 1<br/>value = 1301.0>, fillcolor="#e581391d"] ;
319 -> 321 ;
322 [label=<windspeed &le; 0.127<br/>mse = 72678.25<br/>samples = 4<br/>value = 2402.5>, fillcolor="#e5813941"] ;
318 -> 322 ;
323 [label=<weekday &le; 3.5<br/>mse = 40000.0<br/>samples = 2<br/>value = 2632.0>, fillcolor="#e5813948"] ;
322 -> 323 ;
324 [label=<mse = 0.0<br/>samples = 1<br/>value = 2432.0>, fillcolor="#e5813942"] ;
323 -> 324 ;
325 [label=<mse = 0.0<br/>samples = 1<br/>value = 2832.0>, fillcolor="#e581394f"] ;
323 -> 325 ;
326 [label=<weather_type &le; 2.5<br/>mse = 16.0<br/>samples = 2<br/>value = 2173.0>, fillcolor="#e5813939"] ;
322 -> 326 ;
327 [label=<mse = 0.0<br/>samples = 1<br/>value = 2177.0>, fillcolor="#e581393a"] ;
326 -> 327 ;
328 [label=<mse = 0.0<br/>samples = 1<br/>value = 2169.0>, fillcolor="#e5813939"] ;
326 -> 328 ;
329 [label=<holiday &le; 0.5<br/>mse = 2162.25<br/>samples = 2<br/>value = 966.5>, fillcolor="#e5813912"] ;
317 -> 329 ;
330 [label=<mse = 0.0<br/>samples = 1<br/>value = 920.0>, fillcolor="#e5813910"] ;
329 -> 330 ;
331 [label=<mse = 0.0<br/>samples = 1<br/>value = 1013.0>, fillcolor="#e5813913"] ;
329 -> 331 ;
332 [label=<weather_type &le; 1.5<br/>mse = 402634.142<br/>samples = 31<br/>value = 3927.29>, fillcolor="#e5813973"] ;
270 -> 332 ;
333 [label=<atemp &le; 0.345<br/>mse = 180378.238<br/>samples = 19<br/>value = 4225.842>, fillcolor="#e581397d"] ;
332 -> 333 ;
334 [label=<weekday &le; 2.5<br/>mse = 97597.714<br/>samples = 7<br/>value = 3803.0>, fillcolor="#e581396f"] ;
333 -> 334 ;
335 [label=<humidity &le; 0.544<br/>mse = 22147.25<br/>samples = 4<br/>value = 3557.5>, fillcolor="#e5813967"] ;
334 -> 335 ;
336 [label=<windspeed &le; 0.263<br/>mse = 1.0<br/>samples = 2<br/>value = 3424.0>, fillcolor="#e5813963"] ;
335 -> 336 ;
337 [label=<mse = 0.0<br/>samples = 1<br/>value = 3425.0>, fillcolor="#e5813963"] ;
336 -> 337 ;
338 [label=<mse = 0.0<br/>samples = 1<br/>value = 3423.0>, fillcolor="#e5813963"] ;
336 -> 338 ;
339 [label=<humidity &le; 0.634<br/>mse = 8649.0<br/>samples = 2<br/>value = 3691.0>, fillcolor="#e581396b"] ;
335 -> 339 ;
340 [label=<mse = 0.0<br/>samples = 1<br/>value = 3784.0>, fillcolor="#e581396e"] ;
339 -> 340 ;
341 [label=<mse = 0.0<br/>samples = 1<br/>value = 3598.0>, fillcolor="#e5813968"] ;
339 -> 341 ;
342 [label=<atemp &le; 0.311<br/>mse = 10690.889<br/>samples = 3<br/>value = 4130.333>, fillcolor="#e581397a"] ;
334 -> 342 ;
343 [label=<mse = 0.0<br/>samples = 1<br/>value = 4270.0>, fillcolor="#e581397e"] ;
342 -> 343 ;
344 [label=<weekday &le; 5.5<br/>mse = 1406.25<br/>samples = 2<br/>value = 4060.5>, fillcolor="#e5813978"] ;
342 -> 344 ;
345 [label=<mse = 0.0<br/>samples = 1<br/>value = 4098.0>, fillcolor="#e5813979"] ;
344 -> 345 ;
346 [label=<mse = 0.0<br/>samples = 1<br/>value = 4023.0>, fillcolor="#e5813976"] ;
344 -> 346 ;
347 [label=<month &le; 2.5<br/>mse = 63529.417<br/>samples = 12<br/>value = 4472.5>, fillcolor="#e5813985"] ;
333 -> 347 ;
348 [label=<atemp &le; 0.371<br/>mse = 29558.61<br/>samples = 10<br/>value = 4384.3>, fillcolor="#e5813982"] ;
347 -> 348 ;
349 [label=<weekday &le; 2.5<br/>mse = 7126.531<br/>samples = 7<br/>value = 4291.429>, fillcolor="#e581397f"] ;
348 -> 349 ;
350 [label=<windspeed &le; 0.231<br/>mse = 424.688<br/>samples = 4<br/>value = 4349.75>, fillcolor="#e5813981"] ;
349 -> 350 ;
351 [label=<month &le; 1.5<br/>mse = 224.0<br/>samples = 3<br/>value = 4359.0>, fillcolor="#e5813981"] ;
350 -> 351 ;
352 [label=<mse = 0.0<br/>samples = 1<br/>value = 4339.0>, fillcolor="#e5813981"] ;
351 -> 352 ;
353 [label=<humidity &le; 0.446<br/>mse = 36.0<br/>samples = 2<br/>value = 4369.0>, fillcolor="#e5813982"] ;
351 -> 353 ;
354 [label=<mse = 0.0<br/>samples = 1<br/>value = 4363.0>, fillcolor="#e5813982"] ;
353 -> 354 ;
355 [label=<mse = 0.0<br/>samples = 1<br/>value = 4375.0>, fillcolor="#e5813982"] ;
353 -> 355 ;
356 [label=<mse = 0.0<br/>samples = 1<br/>value = 4322.0>, fillcolor="#e5813980"] ;
350 -> 356 ;
357 [label=<workingday &le; 0.5<br/>mse = 5480.222<br/>samples = 3<br/>value = 4213.667>, fillcolor="#e581397d"] ;
349 -> 357 ;
358 [label=<mse = 0.0<br/>samples = 1<br/>value = 4318.0>, fillcolor="#e5813980"] ;
357 -> 358 ;
359 [label=<weekday &le; 4.0<br/>mse = 56.25<br/>samples = 2<br/>value = 4161.5>, fillcolor="#e581397b"] ;
357 -> 359 ;
360 [label=<mse = 0.0<br/>samples = 1<br/>value = 4169.0>, fillcolor="#e581397b"] ;
359 -> 360 ;
361 [label=<mse = 0.0<br/>samples = 1<br/>value = 4154.0>, fillcolor="#e581397b"] ;
359 -> 361 ;
362 [label=<month &le; 1.5<br/>mse = 14816.0<br/>samples = 3<br/>value = 4601.0>, fillcolor="#e5813989"] ;
348 -> 362 ;
363 [label=<windspeed &le; 0.218<br/>mse = 36.0<br/>samples = 2<br/>value = 4515.0>, fillcolor="#e5813987"] ;
362 -> 363 ;
364 [label=<mse = 0.0<br/>samples = 1<br/>value = 4521.0>, fillcolor="#e5813987"] ;
363 -> 364 ;
365 [label=<mse = 0.0<br/>samples = 1<br/>value = 4509.0>, fillcolor="#e5813986"] ;
363 -> 365 ;
366 [label=<mse = 0.0<br/>samples = 1<br/>value = 4773.0>, fillcolor="#e581398f"] ;
362 -> 366 ;
367 [label=<weekday &le; 1.5<br/>mse = 6.25<br/>samples = 2<br/>value = 4913.5>, fillcolor="#e5813994"] ;
347 -> 367 ;
368 [label=<mse = 0.0<br/>samples = 1<br/>value = 4911.0>, fillcolor="#e5813994"] ;
367 -> 368 ;
369 [label=<mse = 0.0<br/>samples = 1<br/>value = 4916.0>, fillcolor="#e5813994"] ;
367 -> 369 ;
370 [label=<humidity &le; 0.804<br/>mse = 389959.91<br/>samples = 12<br/>value = 3454.583>, fillcolor="#e5813964"] ;
332 -> 370 ;
371 [label=<humidity &le; 0.761<br/>mse = 164952.264<br/>samples = 11<br/>value = 3601.909>, fillcolor="#e5813968"] ;
370 -> 371 ;
372 [label=<humidity &le; 0.639<br/>mse = 137932.444<br/>samples = 9<br/>value = 3494.333>, fillcolor="#e5813965"] ;
371 -> 372 ;
373 [label=<atemp &le; 0.318<br/>mse = 34042.889<br/>samples = 3<br/>value = 3870.333>, fillcolor="#e5813971"] ;
372 -> 373 ;
374 [label=<mse = 0.0<br/>samples = 1<br/>value = 3623.0>, fillcolor="#e5813969"] ;
373 -> 374 ;
375 [label=<month &le; 2.5<br/>mse = 5184.0<br/>samples = 2<br/>value = 3994.0>, fillcolor="#e5813975"] ;
373 -> 375 ;
376 [label=<mse = 0.0<br/>samples = 1<br/>value = 3922.0>, fillcolor="#e5813973"] ;
375 -> 376 ;
377 [label=<mse = 0.0<br/>samples = 1<br/>value = 4066.0>, fillcolor="#e5813978"] ;
375 -> 377 ;
378 [label=<atemp &le; 0.382<br/>mse = 83845.222<br/>samples = 6<br/>value = 3306.333>, fillcolor="#e581395f"] ;
372 -> 378 ;
379 [label=<month &le; 2.5<br/>mse = 11966.889<br/>samples = 3<br/>value = 3044.667>, fillcolor="#e5813956"] ;
378 -> 379 ;
380 [label=<atemp &le; 0.347<br/>mse = 1225.0<br/>samples = 2<br/>value = 2970.0>, fillcolor="#e5813954"] ;
379 -> 380 ;
381 [label=<mse = 0.0<br/>samples = 1<br/>value = 3005.0>, fillcolor="#e5813955"] ;
380 -> 381 ;
382 [label=<mse = 0.0<br/>samples = 1<br/>value = 2935.0>, fillcolor="#e5813952"] ;
380 -> 382 ;
383 [label=<mse = 0.0<br/>samples = 1<br/>value = 3194.0>, fillcolor="#e581395b"] ;
379 -> 383 ;
384 [label=<windspeed &le; 0.212<br/>mse = 18784.667<br/>samples = 3<br/>value = 3568.0>, fillcolor="#e5813967"] ;
378 -> 384 ;
385 [label=<mse = 0.0<br/>samples = 1<br/>value = 3761.0>, fillcolor="#e581396e"] ;
384 -> 385 ;
386 [label=<atemp &le; 0.413<br/>mse = 240.25<br/>samples = 2<br/>value = 3471.5>, fillcolor="#e5813964"] ;
384 -> 386 ;
387 [label=<mse = 0.0<br/>samples = 1<br/>value = 3487.0>, fillcolor="#e5813965"] ;
386 -> 387 ;
388 [label=<mse = 0.0<br/>samples = 1<br/>value = 3456.0>, fillcolor="#e5813964"] ;
386 -> 388 ;
389 [label=<windspeed &le; 0.127<br/>mse = 121.0<br/>samples = 2<br/>value = 4086.0>, fillcolor="#e5813978"] ;
371 -> 389 ;
390 [label=<mse = 0.0<br/>samples = 1<br/>value = 4075.0>, fillcolor="#e5813978"] ;
389 -> 390 ;
391 [label=<mse = 0.0<br/>samples = 1<br/>value = 4097.0>, fillcolor="#e5813979"] ;
389 -> 391 ;
392 [label=<mse = 0.0<br/>samples = 1<br/>value = 1834.0>, fillcolor="#e581392e"] ;
370 -> 392 ;
393 [label=<humidity &le; 0.752<br/>mse = 1645309.029<br/>samples = 54<br/>value = 4945.152>, fillcolor="#e5813995"] ;
269 -> 393 ;
394 [label=<atemp &le; 0.258<br/>mse = 1012309.55<br/>samples = 46<br/>value = 5216.418>, fillcolor="#e581399e"] ;
393 -> 394 ;
395 [label=<windspeed &le; 0.264<br/>mse = 5402.25<br/>samples = 2<br/>value = 2350.5>, fillcolor="#e581393f"] ;
394 -> 395 ;
396 [label=<mse = 0.0<br/>samples = 1<br/>value = 2424.0>, fillcolor="#e5813942"] ;
395 -> 396 ;
397 [label=<mse = 0.0<br/>samples = 1<br/>value = 2277.0>, fillcolor="#e581393d"] ;
395 -> 397 ;
398 [label=<atemp &le; 0.38<br/>mse = 667767.813<br/>samples = 44<br/>value = 5346.687>, fillcolor="#e58139a2"] ;
394 -> 398 ;
399 [label=<holiday &le; 0.5<br/>mse = 507619.415<br/>samples = 29<br/>value = 5094.414>, fillcolor="#e581399a"] ;
398 -> 399 ;
400 [label=<atemp &le; 0.377<br/>mse = 262167.902<br/>samples = 28<br/>value = 5189.75>, fillcolor="#e581399d"] ;
399 -> 400 ;
401 [label=<humidity &le; 0.656<br/>mse = 175688.504<br/>samples = 26<br/>value = 5276.269>, fillcolor="#e58139a0"] ;
400 -> 401 ;
402 [label=<weekday &le; 4.5<br/>mse = 68982.261<br/>samples = 23<br/>value = 5365.0>, fillcolor="#e58139a3"] ;
401 -> 402 ;
403 [label=<month &le; 7.5<br/>mse = 35248.18<br/>samples = 17<br/>value = 5274.235>, fillcolor="#e58139a0"] ;
402 -> 403 ;
404 [label=<month &le; 3.5<br/>mse = 14400.0<br/>samples = 2<br/>value = 4982.0>, fillcolor="#e5813996"] ;
403 -> 404 ;
405 [label=<mse = 0.0<br/>samples = 1<br/>value = 5102.0>, fillcolor="#e581399a"] ;
404 -> 405 ;
406 [label=<mse = 0.0<br/>samples = 1<br/>value = 4862.0>, fillcolor="#e5813992"] ;
404 -> 406 ;
407 [label=<windspeed &le; 0.109<br/>mse = 25122.827<br/>samples = 15<br/>value = 5313.2>, fillcolor="#e58139a1"] ;
403 -> 407 ;
408 [label=<humidity &le; 0.575<br/>mse = 870.25<br/>samples = 2<br/>value = 5116.5>, fillcolor="#e581399a"] ;
407 -> 408 ;
409 [label=<mse = 0.0<br/>samples = 1<br/>value = 5087.0>, fillcolor="#e5813999"] ;
408 -> 409 ;
410 [label=<mse = 0.0<br/>samples = 1<br/>value = 5146.0>, fillcolor="#e581399b"] ;
408 -> 410 ;
411 [label=<humidity &le; 0.55<br/>mse = 21985.787<br/>samples = 13<br/>value = 5343.462>, fillcolor="#e58139a2"] ;
407 -> 411 ;
412 [label=<month &le; 11.5<br/>mse = 20736.188<br/>samples = 8<br/>value = 5275.25>, fillcolor="#e58139a0"] ;
411 -> 412 ;
413 [label=<humidity &le; 0.52<br/>mse = 11212.96<br/>samples = 5<br/>value = 5195.2>, fillcolor="#e581399d"] ;
412 -> 413 ;
414 [label=<weekday &le; 3.5<br/>mse = 684.667<br/>samples = 3<br/>value = 5278.0>, fillcolor="#e58139a0"] ;
413 -> 414 ;
415 [label=<weekday &le; 2.0<br/>mse = 0.25<br/>samples = 2<br/>value = 5259.5>, fillcolor="#e581399f"] ;
414 -> 415 ;
416 [label=<mse = 0.0<br/>samples = 1<br/>value = 5259.0>, fillcolor="#e581399f"] ;
415 -> 416 ;
417 [label=<mse = 0.0<br/>samples = 1<br/>value = 5260.0>, fillcolor="#e581399f"] ;
415 -> 417 ;
418 [label=<mse = 0.0<br/>samples = 1<br/>value = 5315.0>, fillcolor="#e58139a1"] ;
414 -> 418 ;
419 [label=<workingday &le; 0.5<br/>mse = 1296.0<br/>samples = 2<br/>value = 5071.0>, fillcolor="#e5813999"] ;
413 -> 419 ;
420 [label=<mse = 0.0<br/>samples = 1<br/>value = 5107.0>, fillcolor="#e581399a"] ;
419 -> 420 ;
421 [label=<mse = 0.0<br/>samples = 1<br/>value = 5035.0>, fillcolor="#e5813998"] ;
419 -> 421 ;
422 [label=<humidity &le; 0.497<br/>mse = 8128.222<br/>samples = 3<br/>value = 5408.667>, fillcolor="#e58139a4"] ;
412 -> 422 ;
423 [label=<mse = 0.0<br/>samples = 1<br/>value = 5532.0>, fillcolor="#e58139a8"] ;
422 -> 423 ;
424 [label=<weather_type &le; 1.5<br/>mse = 784.0<br/>samples = 2<br/>value = 5347.0>, fillcolor="#e58139a2"] ;
422 -> 424 ;
425 [label=<mse = 0.0<br/>samples = 1<br/>value = 5375.0>, fillcolor="#e58139a3"] ;
424 -> 425 ;
426 [label=<mse = 0.0<br/>samples = 1<br/>value = 5319.0>, fillcolor="#e58139a1"] ;
424 -> 426 ;
427 [label=<windspeed &le; 0.134<br/>mse = 4629.44<br/>samples = 5<br/>value = 5452.6>, fillcolor="#e58139a5"] ;
411 -> 427 ;
428 [label=<mse = 0.0<br/>samples = 1<br/>value = 5323.0>, fillcolor="#e58139a1"] ;
427 -> 428 ;
429 [label=<windspeed &le; 0.176<br/>mse = 538.0<br/>samples = 4<br/>value = 5485.0>, fillcolor="#e58139a6"] ;
427 -> 429 ;
430 [label=<mse = 0.0<br/>samples = 1<br/>value = 5445.0>, fillcolor="#e58139a5"] ;
429 -> 430 ;
431 [label=<weekday &le; 2.5<br/>mse = 6.222<br/>samples = 3<br/>value = 5498.333>, fillcolor="#e58139a7"] ;
429 -> 431 ;
432 [label=<humidity &le; 0.61<br/>mse = 1.0<br/>samples = 2<br/>value = 5500.0>, fillcolor="#e58139a7"] ;
431 -> 432 ;
433 [label=<mse = 0.0<br/>samples = 1<br/>value = 5501.0>, fillcolor="#e58139a7"] ;
432 -> 433 ;
434 [label=<mse = 0.0<br/>samples = 1<br/>value = 5499.0>, fillcolor="#e58139a7"] ;
432 -> 434 ;
435 [label=<mse = 0.0<br/>samples = 1<br/>value = 5495.0>, fillcolor="#e58139a7"] ;
431 -> 435 ;
436 [label=<weather_type &le; 1.5<br/>mse = 75085.806<br/>samples = 6<br/>value = 5622.167>, fillcolor="#e58139ab"] ;
402 -> 436 ;
437 [label=<windspeed &le; 0.197<br/>mse = 21178.5<br/>samples = 4<br/>value = 5784.0>, fillcolor="#e58139b0"] ;
436 -> 437 ;
438 [label=<workingday &le; 0.5<br/>mse = 380.25<br/>samples = 2<br/>value = 5648.5>, fillcolor="#e58139ac"] ;
437 -> 438 ;
439 [label=<mse = 0.0<br/>samples = 1<br/>value = 5629.0>, fillcolor="#e58139ab"] ;
438 -> 439 ;
440 [label=<mse = 0.0<br/>samples = 1<br/>value = 5668.0>, fillcolor="#e58139ac"] ;
438 -> 440 ;
441 [label=<atemp &le; 0.356<br/>mse = 5256.25<br/>samples = 2<br/>value = 5919.5>, fillcolor="#e58139b5"] ;
437 -> 441 ;
442 [label=<mse = 0.0<br/>samples = 1<br/>value = 5992.0>, fillcolor="#e58139b7"] ;
441 -> 442 ;
443 [label=<mse = 0.0<br/>samples = 1<br/>value = 5847.0>, fillcolor="#e58139b2"] ;
441 -> 443 ;
444 [label=<workingday &le; 0.5<br/>mse = 25760.25<br/>samples = 2<br/>value = 5298.5>, fillcolor="#e58139a0"] ;
436 -> 444 ;
445 [label=<mse = 0.0<br/>samples = 1<br/>value = 5138.0>, fillcolor="#e581399b"] ;
444 -> 445 ;
446 [label=<mse = 0.0<br/>samples = 1<br/>value = 5459.0>, fillcolor="#e58139a6"] ;
444 -> 446 ;
447 [label=<atemp &le; 0.348<br/>mse = 470642.667<br/>samples = 3<br/>value = 4596.0>, fillcolor="#e5813989"] ;
401 -> 447 ;
448 [label=<month &le; 11.5<br/>mse = 289.0<br/>samples = 2<br/>value = 4111.0>, fillcolor="#e5813979"] ;
447 -> 448 ;
449 [label=<mse = 0.0<br/>samples = 1<br/>value = 4094.0>, fillcolor="#e5813979"] ;
448 -> 449 ;
450 [label=<mse = 0.0<br/>samples = 1<br/>value = 4128.0>, fillcolor="#e581397a"] ;
448 -> 450 ;
451 [label=<mse = 0.0<br/>samples = 1<br/>value = 5566.0>, fillcolor="#e58139a9"] ;
447 -> 451 ;
452 [label=<atemp &le; 0.378<br/>mse = 24025.0<br/>samples = 2<br/>value = 4065.0>, fillcolor="#e5813978"] ;
400 -> 452 ;
453 [label=<mse = 0.0<br/>samples = 1<br/>value = 4220.0>, fillcolor="#e581397d"] ;
452 -> 453 ;
454 [label=<mse = 0.0<br/>samples = 1<br/>value = 3910.0>, fillcolor="#e5813973"] ;
452 -> 454 ;
455 [label=<mse = 0.0<br/>samples = 1<br/>value = 2425.0>, fillcolor="#e5813942"] ;
399 -> 455 ;
456 [label=<weekday &le; 4.5<br/>mse = 616468.864<br/>samples = 15<br/>value = 5834.415>, fillcolor="#e58139b2"] ;
398 -> 456 ;
457 [label=<humidity &le; 0.697<br/>mse = 581312.304<br/>samples = 10<br/>value = 5545.918>, fillcolor="#e58139a8"] ;
456 -> 457 ;
458 [label=<weekday &le; 1.5<br/>mse = 138785.045<br/>samples = 8<br/>value = 5808.898>, fillcolor="#e58139b1"] ;
457 -> 458 ;
459 [label=<season &le; 3.0<br/>mse = 142800.512<br/>samples = 3<br/>value = 6169.728>, fillcolor="#e58139bd"] ;
458 -> 459 ;
460 [label=<windspeed &le; 0.242<br/>mse = 1076.373<br/>samples = 2<br/>value = 5903.192>, fillcolor="#e58139b4"] ;
459 -> 460 ;
461 [label=<mse = 0.0<br/>samples = 1<br/>value = 5870.384>, fillcolor="#e58139b3"] ;
460 -> 461 ;
462 [label=<mse = -0.0<br/>samples = 1<br/>value = 5936.0>, fillcolor="#e58139b5"] ;
460 -> 462 ;
463 [label=<mse = 0.0<br/>samples = 1<br/>value = 6702.8>, fillcolor="#e58139cf"] ;
459 -> 463 ;
464 [label=<weekday &le; 3.5<br/>mse = 11385.44<br/>samples = 5<br/>value = 5592.4>, fillcolor="#e58139aa"] ;
458 -> 464 ;
465 [label=<weekday &le; 2.5<br/>mse = 3720.688<br/>samples = 4<br/>value = 5638.25>, fillcolor="#e58139ac"] ;
464 -> 465 ;
466 [label=<atemp &le; 0.407<br/>mse = 1300.667<br/>samples = 3<br/>value = 5608.0>, fillcolor="#e58139ab"] ;
465 -> 466 ;
467 [label=<atemp &le; 0.393<br/>mse = 0.25<br/>samples = 2<br/>value = 5633.5>, fillcolor="#e58139ab"] ;
466 -> 467 ;
468 [label=<mse = 0.0<br/>samples = 1<br/>value = 5634.0>, fillcolor="#e58139ab"] ;
467 -> 468 ;
469 [label=<mse = 0.0<br/>samples = 1<br/>value = 5633.0>, fillcolor="#e58139ab"] ;
467 -> 469 ;
470 [label=<mse = 0.0<br/>samples = 1<br/>value = 5557.0>, fillcolor="#e58139a9"] ;
466 -> 470 ;
471 [label=<mse = 0.0<br/>samples = 1<br/>value = 5729.0>, fillcolor="#e58139af"] ;
465 -> 471 ;
472 [label=<mse = 0.0<br/>samples = 1<br/>value = 5409.0>, fillcolor="#e58139a4"] ;
464 -> 472 ;
473 [label=<windspeed &le; 0.165<br/>mse = 968256.0<br/>samples = 2<br/>value = 4494.0>, fillcolor="#e5813986"] ;
457 -> 473 ;
474 [label=<mse = 0.0<br/>samples = 1<br/>value = 3510.0>, fillcolor="#e5813965"] ;
473 -> 474 ;
475 [label=<mse = 0.0<br/>samples = 1<br/>value = 5478.0>, fillcolor="#e58139a6"] ;
473 -> 475 ;
476 [label=<atemp &le; 0.408<br/>mse = 187400.795<br/>samples = 5<br/>value = 6411.408>, fillcolor="#e58139c5"] ;
456 -> 476 ;
477 [label=<season &le; 3.0<br/>mse = 83922.889<br/>samples = 3<br/>value = 6701.667>, fillcolor="#e58139cf"] ;
476 -> 477 ;
478 [label=<mse = 0.0<br/>samples = 1<br/>value = 6460.0>, fillcolor="#e58139c7"] ;
477 -> 478 ;
479 [label=<humidity &le; 0.57<br/>mse = 82082.25<br/>samples = 2<br/>value = 6822.5>, fillcolor="#e58139d3"] ;
477 -> 479 ;
480 [label=<mse = 0.0<br/>samples = 1<br/>value = 7109.0>, fillcolor="#e58139dc"] ;
479 -> 480 ;
481 [label=<mse = 0.0<br/>samples = 1<br/>value = 6536.0>, fillcolor="#e58139c9"] ;
479 -> 481 ;
482 [label=<month &le; 3.5<br/>mse = 26679.172<br/>samples = 2<br/>value = 5976.019>, fillcolor="#e58139b7"] ;
476 -> 482 ;
483 [label=<mse = 0.0<br/>samples = 1<br/>value = 6139.357>, fillcolor="#e58139bc"] ;
482 -> 483 ;
484 [label=<mse = 0.0<br/>samples = 1<br/>value = 5812.682>, fillcolor="#e58139b1"] ;
482 -> 484 ;
485 [label=<month &le; 10.5<br/>mse = 2429036.984<br/>samples = 8<br/>value = 3385.375>, fillcolor="#e5813961"] ;
393 -> 485 ;
486 [label=<humidity &le; 0.796<br/>mse = 1030406.0<br/>samples = 3<br/>value = 1779.0>, fillcolor="#e581392c"] ;
485 -> 486 ;
487 [label=<mse = 0.0<br/>samples = 1<br/>value = 3214.0>, fillcolor="#e581395c"] ;
486 -> 487 ;
488 [label=<month &le; 7.0<br/>mse = 1190.25<br/>samples = 2<br/>value = 1061.5>, fillcolor="#e5813915"] ;
486 -> 488 ;
489 [label=<mse = 0.0<br/>samples = 1<br/>value = 1027.0>, fillcolor="#e5813914"] ;
488 -> 489 ;
490 [label=<mse = 0.0<br/>samples = 1<br/>value = 1096.0>, fillcolor="#e5813916"] ;
488 -> 490 ;
491 [label=<weekday &le; 4.0<br/>mse = 790992.56<br/>samples = 5<br/>value = 4349.2>, fillcolor="#e5813981"] ;
485 -> 491 ;
492 [label=<atemp &le; 0.38<br/>mse = 97294.889<br/>samples = 3<br/>value = 3657.667>, fillcolor="#e581396a"] ;
491 -> 492 ;
493 [label=<atemp &le; 0.326<br/>mse = 7482.25<br/>samples = 2<br/>value = 3872.5>, fillcolor="#e5813971"] ;
492 -> 493 ;
494 [label=<mse = 0.0<br/>samples = 1<br/>value = 3959.0>, fillcolor="#e5813974"] ;
493 -> 494 ;
495 [label=<mse = 0.0<br/>samples = 1<br/>value = 3786.0>, fillcolor="#e581396f"] ;
493 -> 495 ;
496 [label=<mse = 0.0<br/>samples = 1<br/>value = 3228.0>, fillcolor="#e581395c"] ;
492 -> 496 ;
497 [label=<windspeed &le; 0.081<br/>mse = 38220.25<br/>samples = 2<br/>value = 5386.5>, fillcolor="#e58139a3"] ;
491 -> 497 ;
498 [label=<mse = 0.0<br/>samples = 1<br/>value = 5191.0>, fillcolor="#e581399d"] ;
497 -> 498 ;
499 [label=<mse = 0.0<br/>samples = 1<br/>value = 5582.0>, fillcolor="#e58139aa"] ;
497 -> 499 ;
500 [label=<year &le; 0.5<br/>mse = 2071938.623<br/>samples = 333<br/>value = 5469.268>, fillcolor="#e58139a6"] ;
0 -> 500 [labeldistance=2.5, labelangle=-45, headlabel="False"] ;
501 [label=<humidity &le; 0.888<br/>mse = 651037.924<br/>samples = 159<br/>value = 4285.672>, fillcolor="#e581397f"] ;
500 -> 501 ;
502 [label=<month &le; 4.5<br/>mse = 503084.468<br/>samples = 150<br/>value = 4377.526>, fillcolor="#e5813982"] ;
501 -> 502 ;
503 [label=<atemp &le; 0.547<br/>mse = 263980.699<br/>samples = 17<br/>value = 3524.353>, fillcolor="#e5813966"] ;
502 -> 503 ;
504 [label=<humidity &le; 0.417<br/>mse = 132867.76<br/>samples = 10<br/>value = 3202.8>, fillcolor="#e581395b"] ;
503 -> 504 ;
505 [label=<workingday &le; 0.5<br/>mse = 287296.0<br/>samples = 2<br/>value = 3653.0>, fillcolor="#e581396a"] ;
504 -> 505 ;
506 [label=<mse = 0.0<br/>samples = 1<br/>value = 3117.0>, fillcolor="#e5813958"] ;
505 -> 506 ;
507 [label=<mse = 0.0<br/>samples = 1<br/>value = 4189.0>, fillcolor="#e581397c"] ;
505 -> 507 ;
508 [label=<month &le; 3.5<br/>mse = 30923.188<br/>samples = 8<br/>value = 3090.25>, fillcolor="#e5813958"] ;
504 -> 508 ;
509 [label=<atemp &le; 0.519<br/>mse = 48312.889<br/>samples = 3<br/>value = 2956.333>, fillcolor="#e5813953"] ;
508 -> 509 ;
510 [label=<atemp &le; 0.476<br/>mse = 12544.0<br/>samples = 2<br/>value = 2815.0>, fillcolor="#e581394f"] ;
509 -> 510 ;
511 [label=<mse = 0.0<br/>samples = 1<br/>value = 2703.0>, fillcolor="#e581394b"] ;
510 -> 511 ;
512 [label=<mse = 0.0<br/>samples = 1<br/>value = 2927.0>, fillcolor="#e5813952"] ;
510 -> 512 ;
513 [label=<mse = 0.0<br/>samples = 1<br/>value = 3239.0>, fillcolor="#e581395c"] ;
509 -> 513 ;
514 [label=<windspeed &le; 0.16<br/>mse = 3273.04<br/>samples = 5<br/>value = 3170.6>, fillcolor="#e581395a"] ;
508 -> 514 ;
515 [label=<windspeed &le; 0.134<br/>mse = 992.25<br/>samples = 2<br/>value = 3235.5>, fillcolor="#e581395c"] ;
514 -> 515 ;
516 [label=<mse = 0.0<br/>samples = 1<br/>value = 3267.0>, fillcolor="#e581395d"] ;
515 -> 516 ;
517 [label=<mse = 0.0<br/>samples = 1<br/>value = 3204.0>, fillcolor="#e581395b"] ;
515 -> 517 ;
518 [label=<windspeed &le; 0.194<br/>mse = 113.556<br/>samples = 3<br/>value = 3127.333>, fillcolor="#e5813959"] ;
514 -> 518 ;
519 [label=<mse = 0.0<br/>samples = 1<br/>value = 3141.0>, fillcolor="#e5813959"] ;
518 -> 519 ;
520 [label=<weekday &le; 3.0<br/>mse = 30.25<br/>samples = 2<br/>value = 3120.5>, fillcolor="#e5813959"] ;
518 -> 520 ;
521 [label=<mse = 0.0<br/>samples = 1<br/>value = 3115.0>, fillcolor="#e5813958"] ;
520 -> 521 ;
522 [label=<mse = 0.0<br/>samples = 1<br/>value = 3126.0>, fillcolor="#e5813959"] ;
520 -> 522 ;
523 [label=<humidity &le; 0.723<br/>mse = 92563.061<br/>samples = 7<br/>value = 3983.714>, fillcolor="#e5813975"] ;
503 -> 523 ;
524 [label=<humidity &le; 0.709<br/>mse = 96923.556<br/>samples = 3<br/>value = 3783.333>, fillcolor="#e581396e"] ;
523 -> 524 ;
525 [label=<windspeed &le; 0.281<br/>mse = 3249.0<br/>samples = 2<br/>value = 4001.0>, fillcolor="#e5813976"] ;
524 -> 525 ;
526 [label=<mse = 0.0<br/>samples = 1<br/>value = 3944.0>, fillcolor="#e5813974"] ;
525 -> 526 ;
527 [label=<mse = 0.0<br/>samples = 1<br/>value = 4058.0>, fillcolor="#e5813977"] ;
525 -> 527 ;
528 [label=<mse = 0.0<br/>samples = 1<br/>value = 3348.0>, fillcolor="#e5813960"] ;
524 -> 528 ;
529 [label=<atemp &le; 0.585<br/>mse = 36592.5<br/>samples = 4<br/>value = 4134.0>, fillcolor="#e581397a"] ;
523 -> 529 ;
530 [label=<humidity &le; 0.823<br/>mse = 17342.889<br/>samples = 3<br/>value = 4045.333>, fillcolor="#e5813977"] ;
529 -> 530 ;
531 [label=<weather_type &le; 1.5<br/>mse = 3481.0<br/>samples = 2<br/>value = 4132.0>, fillcolor="#e581397a"] ;
530 -> 531 ;
532 [label=<mse = 0.0<br/>samples = 1<br/>value = 4073.0>, fillcolor="#e5813978"] ;
531 -> 532 ;
533 [label=<mse = 0.0<br/>samples = 1<br/>value = 4191.0>, fillcolor="#e581397c"] ;
531 -> 533 ;
534 [label=<mse = 0.0<br/>samples = 1<br/>value = 3872.0>, fillcolor="#e5813971"] ;
530 -> 534 ;
535 [label=<mse = 0.0<br/>samples = 1<br/>value = 4400.0>, fillcolor="#e5813983"] ;
529 -> 535 ;
536 [label=<windspeed &le; 0.359<br/>mse = 428713.914<br/>samples = 133<br/>value = 4486.578>, fillcolor="#e5813986"] ;
502 -> 536 ;
537 [label=<atemp &le; 0.457<br/>mse = 345191.636<br/>samples = 132<br/>value = 4512.12>, fillcolor="#e5813986"] ;
536 -> 537 ;
538 [label=<atemp &le; 0.445<br/>mse = 323892.889<br/>samples = 6<br/>value = 3324.667>, fillcolor="#e581395f"] ;
537 -> 538 ;
539 [label=<mse = 0.0<br/>samples = 1<br/>value = 4433.0>, fillcolor="#e5813984"] ;
538 -> 539 ;
540 [label=<windspeed &le; 0.192<br/>mse = 93854.8<br/>samples = 5<br/>value = 3103.0>, fillcolor="#e5813958"] ;
538 -> 540 ;
541 [label=<atemp &le; 0.453<br/>mse = 7140.25<br/>samples = 2<br/>value = 3435.5>, fillcolor="#e5813963"] ;
540 -> 541 ;
542 [label=<mse = 0.0<br/>samples = 1<br/>value = 3351.0>, fillcolor="#e5813960"] ;
541 -> 542 ;
543 [label=<mse = 0.0<br/>samples = 1<br/>value = 3520.0>, fillcolor="#e5813966"] ;
541 -> 543 ;
544 [label=<atemp &le; 0.456<br/>mse = 28824.222<br/>samples = 3<br/>value = 2881.333>, fillcolor="#e5813951"] ;
540 -> 544 ;
545 [label=<humidity &le; 0.765<br/>mse = 6162.25<br/>samples = 2<br/>value = 2992.5>, fillcolor="#e5813954"] ;
544 -> 545 ;
546 [label=<mse = 0.0<br/>samples = 1<br/>value = 3071.0>, fillcolor="#e5813957"] ;
545 -> 546 ;
547 [label=<mse = 0.0<br/>samples = 1<br/>value = 2914.0>, fillcolor="#e5813952"] ;
545 -> 547 ;
548 [label=<mse = 0.0<br/>samples = 1<br/>value = 2659.0>, fillcolor="#e5813949"] ;
544 -> 548 ;
549 [label=<atemp &le; 0.711<br/>mse = 275863.453<br/>samples = 126<br/>value = 4568.665>, fillcolor="#e5813988"] ;
537 -> 549 ;
550 [label=<weather_type &le; 1.5<br/>mse = 244090.834<br/>samples = 110<br/>value = 4648.79>, fillcolor="#e581398b"] ;
549 -> 550 ;
551 [label=<humidity &le; 0.766<br/>mse = 172771.832<br/>samples = 74<br/>value = 4809.697>, fillcolor="#e5813990"] ;
550 -> 551 ;
552 [label=<weekday &le; 5.5<br/>mse = 150883.052<br/>samples = 71<br/>value = 4843.656>, fillcolor="#e5813991"] ;
551 -> 552 ;
553 [label=<humidity &le; 0.527<br/>mse = 132100.461<br/>samples = 61<br/>value = 4785.387>, fillcolor="#e581398f"] ;
552 -> 553 ;
554 [label=<windspeed &le; 0.156<br/>mse = 92838.857<br/>samples = 14<br/>value = 5073.0>, fillcolor="#e5813999"] ;
553 -> 554 ;
555 [label=<atemp &le; 0.622<br/>mse = 70604.222<br/>samples = 3<br/>value = 5520.667>, fillcolor="#e58139a8"] ;
554 -> 555 ;
556 [label=<mse = 0.0<br/>samples = 1<br/>value = 5895.0>, fillcolor="#e58139b4"] ;
555 -> 556 ;
557 [label=<month &le; 6.5<br/>mse = 812.25<br/>samples = 2<br/>value = 5333.5>, fillcolor="#e58139a1"] ;
555 -> 557 ;
558 [label=<mse = 0.0<br/>samples = 1<br/>value = 5305.0>, fillcolor="#e58139a1"] ;
557 -> 558 ;
559 [label=<mse = 0.0<br/>samples = 1<br/>value = 5362.0>, fillcolor="#e58139a2"] ;
557 -> 559 ;
560 [label=<humidity &le; 0.471<br/>mse = 29340.628<br/>samples = 11<br/>value = 4950.909>, fillcolor="#e5813995"] ;
554 -> 560 ;
561 [label=<humidity &le; 0.354<br/>mse = 12654.75<br/>samples = 4<br/>value = 4793.5>, fillcolor="#e5813990"] ;
560 -> 561 ;
562 [label=<mse = 0.0<br/>samples = 1<br/>value = 4968.0>, fillcolor="#e5813995"] ;
561 -> 562 ;
563 [label=<humidity &le; 0.413<br/>mse = 3339.556<br/>samples = 3<br/>value = 4735.333>, fillcolor="#e581398e"] ;
561 -> 563 ;
564 [label=<mse = 0.0<br/>samples = 1<br/>value = 4656.0>, fillcolor="#e581398b"] ;
563 -> 564 ;
565 [label=<atemp &le; 0.645<br/>mse = 289.0<br/>samples = 2<br/>value = 4775.0>, fillcolor="#e581398f"] ;
563 -> 565 ;
566 [label=<mse = 0.0<br/>samples = 1<br/>value = 4758.0>, fillcolor="#e581398f"] ;
565 -> 566 ;
567 [label=<mse = 0.0<br/>samples = 1<br/>value = 4792.0>, fillcolor="#e5813990"] ;
565 -> 567 ;
568 [label=<weekday &le; 2.5<br/>mse = 16626.122<br/>samples = 7<br/>value = 5040.857>, fillcolor="#e5813998"] ;
560 -> 568 ;
569 [label=<windspeed &le; 0.275<br/>mse = 6921.188<br/>samples = 4<br/>value = 4949.25>, fillcolor="#e5813995"] ;
568 -> 569 ;
570 [label=<atemp &le; 0.649<br/>mse = 529.0<br/>samples = 2<br/>value = 4868.0>, fillcolor="#e5813992"] ;
569 -> 570 ;
571 [label=<mse = 0.0<br/>samples = 1<br/>value = 4891.0>, fillcolor="#e5813993"] ;
570 -> 571 ;
572 [label=<mse = 0.0<br/>samples = 1<br/>value = 4845.0>, fillcolor="#e5813991"] ;
570 -> 572 ;
573 [label=<workingday &le; 0.5<br/>mse = 110.25<br/>samples = 2<br/>value = 5030.5>, fillcolor="#e5813997"] ;
569 -> 573 ;
574 [label=<mse = 0.0<br/>samples = 1<br/>value = 5041.0>, fillcolor="#e5813998"] ;
573 -> 574 ;
575 [label=<mse = 0.0<br/>samples = 1<br/>value = 5020.0>, fillcolor="#e5813997"] ;
573 -> 575 ;
576 [label=<weekday &le; 3.5<br/>mse = 3458.0<br/>samples = 3<br/>value = 5163.0>, fillcolor="#e581399c"] ;
568 -> 576 ;
577 [label=<windspeed &le; 0.215<br/>mse = 506.25<br/>samples = 2<br/>value = 5202.5>, fillcolor="#e581399d"] ;
576 -> 577 ;
578 [label=<mse = 0.0<br/>samples = 1<br/>value = 5180.0>, fillcolor="#e581399c"] ;
577 -> 578 ;
579 [label=<mse = 0.0<br/>samples = 1<br/>value = 5225.0>, fillcolor="#e581399e"] ;
577 -> 579 ;
580 [label=<mse = 0.0<br/>samples = 1<br/>value = 5084.0>, fillcolor="#e5813999"] ;
576 -> 580 ;
581 [label=<windspeed &le; 0.069<br/>mse = 111815.248<br/>samples = 47<br/>value = 4699.714>, fillcolor="#e581398d"] ;
553 -> 581 ;
582 [label=<windspeed &le; 0.053<br/>mse = 15795.398<br/>samples = 3<br/>value = 5131.285>, fillcolor="#e581399b"] ;
581 -> 582 ;
583 [label=<windspeed &le; 0.032<br/>mse = 4356.0<br/>samples = 2<br/>value = 5051.0>, fillcolor="#e5813998"] ;
582 -> 583 ;
584 [label=<mse = 0.0<br/>samples = 1<br/>value = 4985.0>, fillcolor="#e5813996"] ;
583 -> 584 ;
585 [label=<mse = 0.0<br/>samples = 1<br/>value = 5117.0>, fillcolor="#e581399a"] ;
583 -> 585 ;
586 [label=<mse = -0.0<br/>samples = 1<br/>value = 5291.855>, fillcolor="#e58139a0"] ;
582 -> 586 ;
587 [label=<atemp &le; 0.529<br/>mse = 104797.124<br/>samples = 44<br/>value = 4670.289>, fillcolor="#e581398c"] ;
581 -> 587 ;
588 [label=<humidity &le; 0.627<br/>mse = 39086.667<br/>samples = 9<br/>value = 4462.0>, fillcolor="#e5813985"] ;
587 -> 588 ;
589 [label=<atemp &le; 0.518<br/>mse = 18477.84<br/>samples = 5<br/>value = 4598.4>, fillcolor="#e5813989"] ;
588 -> 589 ;
590 [label=<windspeed &le; 0.171<br/>mse = 5633.25<br/>samples = 4<br/>value = 4657.5>, fillcolor="#e581398b"] ;
589 -> 590 ;
591 [label=<windspeed &le; 0.151<br/>mse = 1521.0<br/>samples = 2<br/>value = 4726.0>, fillcolor="#e581398d"] ;
590 -> 591 ;
592 [label=<mse = 0.0<br/>samples = 1<br/>value = 4765.0>, fillcolor="#e581398f"] ;
591 -> 592 ;
593 [label=<mse = 0.0<br/>samples = 1<br/>value = 4687.0>, fillcolor="#e581398c"] ;
591 -> 593 ;
594 [label=<weekday &le; 3.0<br/>mse = 361.0<br/>samples = 2<br/>value = 4589.0>, fillcolor="#e5813989"] ;
590 -> 594 ;
595 [label=<mse = 0.0<br/>samples = 1<br/>value = 4570.0>, fillcolor="#e5813988"] ;
594 -> 595 ;
596 [label=<mse = 0.0<br/>samples = 1<br/>value = 4608.0>, fillcolor="#e581398a"] ;
594 -> 596 ;
597 [label=<mse = 0.0<br/>samples = 1<br/>value = 4362.0>, fillcolor="#e5813981"] ;
589 -> 597 ;
598 [label=<weekday &le; 2.5<br/>mse = 12521.25<br/>samples = 4<br/>value = 4291.5>, fillcolor="#e581397f"] ;
588 -> 598 ;
599 [label=<humidity &le; 0.671<br/>mse = 3782.25<br/>samples = 2<br/>value = 4394.5>, fillcolor="#e5813983"] ;
598 -> 599 ;
600 [label=<mse = 0.0<br/>samples = 1<br/>value = 4333.0>, fillcolor="#e5813981"] ;
599 -> 600 ;
601 [label=<mse = 0.0<br/>samples = 1<br/>value = 4456.0>, fillcolor="#e5813985"] ;
599 -> 601 ;
602 [label=<humidity &le; 0.635<br/>mse = 42.25<br/>samples = 2<br/>value = 4188.5>, fillcolor="#e581397c"] ;
598 -> 602 ;
603 [label=<mse = 0.0<br/>samples = 1<br/>value = 4182.0>, fillcolor="#e581397c"] ;
602 -> 603 ;
604 [label=<mse = 0.0<br/>samples = 1<br/>value = 4195.0>, fillcolor="#e581397c"] ;
602 -> 604 ;
605 [label=<atemp &le; 0.634<br/>mse = 107669.437<br/>samples = 35<br/>value = 4723.849>, fillcolor="#e581398d"] ;
587 -> 605 ;
606 [label=<weekday &le; 2.5<br/>mse = 76447.796<br/>samples = 15<br/>value = 4900.933>, fillcolor="#e5813993"] ;
605 -> 606 ;
607 [label=<windspeed &le; 0.184<br/>mse = 22081.04<br/>samples = 5<br/>value = 4621.6>, fillcolor="#e581398a"] ;
606 -> 607 ;
608 [label=<windspeed &le; 0.145<br/>mse = 2467.25<br/>samples = 4<br/>value = 4692.5>, fillcolor="#e581398c"] ;
607 -> 608 ;
609 [label=<atemp &le; 0.603<br/>mse = 625.0<br/>samples = 2<br/>value = 4738.0>, fillcolor="#e581398e"] ;
608 -> 609 ;
610 [label=<mse = 0.0<br/>samples = 1<br/>value = 4713.0>, fillcolor="#e581398d"] ;
609 -> 610 ;
611 [label=<mse = 0.0<br/>samples = 1<br/>value = 4763.0>, fillcolor="#e581398f"] ;
609 -> 611 ;
612 [label=<workingday &le; 0.5<br/>mse = 169.0<br/>samples = 2<br/>value = 4647.0>, fillcolor="#e581398b"] ;
608 -> 612 ;
613 [label=<mse = 0.0<br/>samples = 1<br/>value = 4660.0>, fillcolor="#e581398b"] ;
612 -> 613 ;
614 [label=<mse = 0.0<br/>samples = 1<br/>value = 4634.0>, fillcolor="#e581398a"] ;
612 -> 614 ;
615 [label=<mse = 0.0<br/>samples = 1<br/>value = 4338.0>, fillcolor="#e5813981"] ;
607 -> 615 ;
616 [label=<humidity &le; 0.672<br/>mse = 45110.84<br/>samples = 10<br/>value = 5040.6>, fillcolor="#e5813998"] ;
606 -> 616 ;
617 [label=<month &le; 7.5<br/>mse = 29233.44<br/>samples = 5<br/>value = 5208.6>, fillcolor="#e581399d"] ;
616 -> 617 ;
618 [label=<mse = 0.0<br/>samples = 1<br/>value = 5538.0>, fillcolor="#e58139a8"] ;
617 -> 618 ;
619 [label=<atemp &le; 0.578<br/>mse = 2634.188<br/>samples = 4<br/>value = 5126.25>, fillcolor="#e581399b"] ;
617 -> 619 ;
620 [label=<mse = 0.0<br/>samples = 1<br/>value = 5202.0>, fillcolor="#e581399d"] ;
619 -> 620 ;
621 [label=<windspeed &le; 0.113<br/>mse = 962.0<br/>samples = 3<br/>value = 5101.0>, fillcolor="#e581399a"] ;
619 -> 621 ;
622 [label=<mse = 0.0<br/>samples = 1<br/>value = 5058.0>, fillcolor="#e5813998"] ;
621 -> 622 ;
623 [label=<windspeed &le; 0.197<br/>mse = 56.25<br/>samples = 2<br/>value = 5122.5>, fillcolor="#e581399b"] ;
621 -> 623 ;
624 [label=<mse = 0.0<br/>samples = 1<br/>value = 5115.0>, fillcolor="#e581399a"] ;
623 -> 624 ;
625 [label=<mse = 0.0<br/>samples = 1<br/>value = 5130.0>, fillcolor="#e581399b"] ;
623 -> 625 ;
626 [label=<month &le; 5.5<br/>mse = 4540.24<br/>samples = 5<br/>value = 4872.6>, fillcolor="#e5813992"] ;
616 -> 626 ;
627 [label=<windspeed &le; 0.14<br/>mse = 930.25<br/>samples = 2<br/>value = 4947.5>, fillcolor="#e5813995"] ;
626 -> 627 ;
628 [label=<mse = 0.0<br/>samples = 1<br/>value = 4917.0>, fillcolor="#e5813994"] ;
627 -> 628 ;
629 [label=<mse = 0.0<br/>samples = 1<br/>value = 4978.0>, fillcolor="#e5813996"] ;
627 -> 629 ;
630 [label=<weekday &le; 3.5<br/>mse = 713.556<br/>samples = 3<br/>value = 4822.667>, fillcolor="#e5813991"] ;
626 -> 630 ;
631 [label=<mse = 0.0<br/>samples = 1<br/>value = 4785.0>, fillcolor="#e581398f"] ;
630 -> 631 ;
632 [label=<month &le; 7.5<br/>mse = 6.25<br/>samples = 2<br/>value = 4841.5>, fillcolor="#e5813991"] ;
630 -> 632 ;
633 [label=<mse = 0.0<br/>samples = 1<br/>value = 4844.0>, fillcolor="#e5813991"] ;
632 -> 633 ;
634 [label=<mse = 0.0<br/>samples = 1<br/>value = 4839.0>, fillcolor="#e5813991"] ;
632 -> 634 ;
635 [label=<humidity &le; 0.631<br/>mse = 89927.264<br/>samples = 20<br/>value = 4591.036>, fillcolor="#e5813989"] ;
605 -> 635 ;
636 [label=<humidity &le; 0.57<br/>mse = 63944.247<br/>samples = 9<br/>value = 4753.556>, fillcolor="#e581398e"] ;
635 -> 636 ;
637 [label=<month &le; 7.5<br/>mse = 16384.0<br/>samples = 2<br/>value = 4462.0>, fillcolor="#e5813985"] ;
636 -> 637 ;
638 [label=<mse = 0.0<br/>samples = 1<br/>value = 4590.0>, fillcolor="#e5813989"] ;
637 -> 638 ;
639 [label=<mse = 0.0<br/>samples = 1<br/>value = 4334.0>, fillcolor="#e5813981"] ;
637 -> 639 ;
640 [label=<windspeed &le; 0.241<br/>mse = 46306.694<br/>samples = 7<br/>value = 4836.857>, fillcolor="#e5813991"] ;
636 -> 640 ;
641 [label=<atemp &le; 0.693<br/>mse = 11954.889<br/>samples = 6<br/>value = 4759.333>, fillcolor="#e581398f"] ;
640 -> 641 ;
642 [label=<windspeed &le; 0.212<br/>mse = 3718.688<br/>samples = 4<br/>value = 4826.25>, fillcolor="#e5813991"] ;
641 -> 642 ;
643 [label=<windspeed &le; 0.186<br/>mse = 402.0<br/>samples = 3<br/>value = 4860.0>, fillcolor="#e5813992"] ;
642 -> 643 ;
644 [label=<month &le; 7.5<br/>mse = 56.25<br/>samples = 2<br/>value = 4873.5>, fillcolor="#e5813992"] ;
643 -> 644 ;
645 [label=<mse = 0.0<br/>samples = 1<br/>value = 4881.0>, fillcolor="#e5813993"] ;
644 -> 645 ;
646 [label=<mse = 0.0<br/>samples = 1<br/>value = 4866.0>, fillcolor="#e5813992"] ;
644 -> 646 ;
647 [label=<mse = 0.0<br/>samples = 1<br/>value = 4833.0>, fillcolor="#e5813991"] ;
643 -> 647 ;
648 [label=<mse = 0.0<br/>samples = 1<br/>value = 4725.0>, fillcolor="#e581398d"] ;
642 -> 648 ;
649 [label=<humidity &le; 0.598<br/>mse = 1560.25<br/>samples = 2<br/>value = 4625.5>, fillcolor="#e581398a"] ;
641 -> 649 ;
650 [label=<mse = 0.0<br/>samples = 1<br/>value = 4665.0>, fillcolor="#e581398b"] ;
649 -> 650 ;
651 [label=<mse = 0.0<br/>samples = 1<br/>value = 4586.0>, fillcolor="#e5813989"] ;
649 -> 651 ;
652 [label=<mse = 0.0<br/>samples = 1<br/>value = 5302.0>, fillcolor="#e58139a0"] ;
640 -> 652 ;
653 [label=<atemp &le; 0.661<br/>mse = 71894.679<br/>samples = 11<br/>value = 4458.066>, fillcolor="#e5813985"] ;
635 -> 653 ;
654 [label=<humidity &le; 0.719<br/>mse = 64.889<br/>samples = 3<br/>value = 4672.333>, fillcolor="#e581398c"] ;
653 -> 654 ;
655 [label=<weekday &le; 4.5<br/>mse = 1.0<br/>samples = 2<br/>value = 4678.0>, fillcolor="#e581398c"] ;
654 -> 655 ;
656 [label=<mse = 0.0<br/>samples = 1<br/>value = 4677.0>, fillcolor="#e581398c"] ;
655 -> 656 ;
657 [label=<mse = 0.0<br/>samples = 1<br/>value = 4679.0>, fillcolor="#e581398c"] ;
655 -> 657 ;
658 [label=<mse = 0.0<br/>samples = 1<br/>value = 4661.0>, fillcolor="#e581398b"] ;
654 -> 658 ;
659 [label=<windspeed &le; 0.225<br/>mse = 75158.185<br/>samples = 8<br/>value = 4377.715>, fillcolor="#e5813982"] ;
653 -> 659 ;
660 [label=<month &le; 5.5<br/>mse = 32343.584<br/>samples = 7<br/>value = 4459.532>, fillcolor="#e5813985"] ;
659 -> 660 ;
661 [label=<mse = 0.0<br/>samples = 1<br/>value = 4098.0>, fillcolor="#e5813979"] ;
660 -> 661 ;
662 [label=<humidity &le; 0.633<br/>mse = 12319.273<br/>samples = 6<br/>value = 4519.787>, fillcolor="#e5813987"] ;
660 -> 662 ;
663 [label=<mse = 0.0<br/>samples = 1<br/>value = 4342.0>, fillcolor="#e5813981"] ;
662 -> 663 ;
664 [label=<weekday &le; 1.5<br/>mse = 7197.147<br/>samples = 5<br/>value = 4555.345>, fillcolor="#e5813988"] ;
662 -> 664 ;
665 [label=<humidity &le; 0.697<br/>mse = 17.129<br/>samples = 2<br/>value = 4453.861>, fillcolor="#e5813985"] ;
664 -> 665 ;
666 [label=<mse = 0.0<br/>samples = 1<br/>value = 4458.0>, fillcolor="#e5813985"] ;
665 -> 666 ;
667 [label=<mse = -0.0<br/>samples = 1<br/>value = 4449.723>, fillcolor="#e5813984"] ;
665 -> 667 ;
668 [label=<windspeed &le; 0.155<br/>mse = 540.667<br/>samples = 3<br/>value = 4623.0>, fillcolor="#e581398a"] ;
664 -> 668 ;
669 [label=<weekday &le; 2.5<br/>mse = 90.25<br/>samples = 2<br/>value = 4638.5>, fillcolor="#e581398b"] ;
668 -> 669 ;
670 [label=<mse = 0.0<br/>samples = 1<br/>value = 4648.0>, fillcolor="#e581398b"] ;
669 -> 670 ;
671 [label=<mse = 0.0<br/>samples = 1<br/>value = 4629.0>, fillcolor="#e581398a"] ;
669 -> 671 ;
672 [label=<mse = 0.0<br/>samples = 1<br/>value = 4592.0>, fillcolor="#e5813989"] ;
668 -> 672 ;
673 [label=<mse = 0.0<br/>samples = 1<br/>value = 3805.0>, fillcolor="#e581396f"] ;
659 -> 673 ;
674 [label=<windspeed &le; 0.177<br/>mse = 118404.89<br/>samples = 10<br/>value = 5199.1>, fillcolor="#e581399d"] ;
552 -> 674 ;
675 [label=<month &le; 5.5<br/>mse = 41155.551<br/>samples = 7<br/>value = 5363.857>, fillcolor="#e58139a2"] ;
674 -> 675 ;
676 [label=<mse = 0.0<br/>samples = 1<br/>value = 5805.0>, fillcolor="#e58139b1"] ;
675 -> 676 ;
677 [label=<atemp &le; 0.666<br/>mse = 10174.556<br/>samples = 6<br/>value = 5290.333>, fillcolor="#e58139a0"] ;
675 -> 677 ;
678 [label=<atemp &le; 0.628<br/>mse = 5164.24<br/>samples = 5<br/>value = 5324.6>, fillcolor="#e58139a1"] ;
677 -> 678 ;
679 [label=<month &le; 9.5<br/>mse = 954.889<br/>samples = 3<br/>value = 5365.333>, fillcolor="#e58139a3"] ;
678 -> 679 ;
680 [label=<atemp &le; 0.601<br/>mse = 2.25<br/>samples = 2<br/>value = 5343.5>, fillcolor="#e58139a2"] ;
679 -> 680 ;
681 [label=<mse = 0.0<br/>samples = 1<br/>value = 5342.0>, fillcolor="#e58139a2"] ;
680 -> 681 ;
682 [label=<mse = 0.0<br/>samples = 1<br/>value = 5345.0>, fillcolor="#e58139a2"] ;
680 -> 682 ;
683 [label=<mse = 0.0<br/>samples = 1<br/>value = 5409.0>, fillcolor="#e58139a4"] ;
679 -> 683 ;
684 [label=<humidity &le; 0.642<br/>mse = 5256.25<br/>samples = 2<br/>value = 5263.5>, fillcolor="#e581399f"] ;
678 -> 684 ;
685 [label=<mse = 0.0<br/>samples = 1<br/>value = 5336.0>, fillcolor="#e58139a2"] ;
684 -> 685 ;
686 [label=<mse = 0.0<br/>samples = 1<br/>value = 5191.0>, fillcolor="#e581399d"] ;
684 -> 686 ;
687 [label=<mse = 0.0<br/>samples = 1<br/>value = 5119.0>, fillcolor="#e581399a"] ;
677 -> 687 ;
688 [label=<atemp &le; 0.638<br/>mse = 87526.222<br/>samples = 3<br/>value = 4814.667>, fillcolor="#e5813990"] ;
674 -> 688 ;
689 [label=<month &le; 7.0<br/>mse = 18769.0<br/>samples = 2<br/>value = 4621.0>, fillcolor="#e581398a"] ;
688 -> 689 ;
690 [label=<mse = 0.0<br/>samples = 1<br/>value = 4758.0>, fillcolor="#e581398f"] ;
689 -> 690 ;
691 [label=<mse = 0.0<br/>samples = 1<br/>value = 4484.0>, fillcolor="#e5813985"] ;
689 -> 691 ;
692 [label=<mse = 0.0<br/>samples = 1<br/>value = 5202.0>, fillcolor="#e581399d"] ;
688 -> 692 ;
693 [label=<month &le; 9.0<br/>mse = 17584.667<br/>samples = 3<br/>value = 4006.0>, fillcolor="#e5813976"] ;
551 -> 693 ;
694 [label=<windspeed &le; 0.188<br/>mse = 1806.25<br/>samples = 2<br/>value = 3915.5>, fillcolor="#e5813973"] ;
693 -> 694 ;
695 [label=<mse = 0.0<br/>samples = 1<br/>value = 3958.0>, fillcolor="#e5813974"] ;
694 -> 695 ;
696 [label=<mse = 0.0<br/>samples = 1<br/>value = 3873.0>, fillcolor="#e5813971"] ;
694 -> 696 ;
697 [label=<mse = 0.0<br/>samples = 1<br/>value = 4187.0>, fillcolor="#e581397c"] ;
693 -> 697 ;
698 [label=<windspeed &le; 0.123<br/>mse = 228071.795<br/>samples = 36<br/>value = 4318.035>, fillcolor="#e5813980"] ;
550 -> 698 ;
699 [label=<windspeed &le; 0.092<br/>mse = 80616.795<br/>samples = 8<br/>value = 4881.616>, fillcolor="#e5813993"] ;
698 -> 699 ;
700 [label=<weekday &le; 3.5<br/>mse = 28428.715<br/>samples = 3<br/>value = 5215.976>, fillcolor="#e581399e"] ;
699 -> 700 ;
701 [label=<windspeed &le; 0.066<br/>mse = 10498.947<br/>samples = 2<br/>value = 5112.464>, fillcolor="#e581399a"] ;
700 -> 701 ;
702 [label=<mse = 0.0<br/>samples = 1<br/>value = 5010.0>, fillcolor="#e5813997"] ;
701 -> 702 ;
703 [label=<mse = 0.0<br/>samples = 1<br/>value = 5214.929>, fillcolor="#e581399e"] ;
701 -> 703 ;
704 [label=<mse = 0.0<br/>samples = 1<br/>value = 5423.0>, fillcolor="#e58139a4"] ;
700 -> 704 ;
705 [label=<humidity &le; 0.766<br/>mse = 4604.8<br/>samples = 5<br/>value = 4681.0>, fillcolor="#e581398c"] ;
699 -> 705 ;
706 [label=<humidity &le; 0.663<br/>mse = 323.556<br/>samples = 3<br/>value = 4733.333>, fillcolor="#e581398e"] ;
705 -> 706 ;
707 [label=<mse = 0.0<br/>samples = 1<br/>value = 4708.0>, fillcolor="#e581398d"] ;
706 -> 707 ;
708 [label=<weekday &le; 1.0<br/>mse = 4.0<br/>samples = 2<br/>value = 4746.0>, fillcolor="#e581398e"] ;
706 -> 708 ;
709 [label=<mse = 0.0<br/>samples = 1<br/>value = 4744.0>, fillcolor="#e581398e"] ;
708 -> 709 ;
710 [label=<mse = 0.0<br/>samples = 1<br/>value = 4748.0>, fillcolor="#e581398e"] ;
708 -> 710 ;
711 [label=<humidity &le; 0.839<br/>mse = 756.25<br/>samples = 2<br/>value = 4602.5>, fillcolor="#e5813989"] ;
705 -> 711 ;
712 [label=<mse = 0.0<br/>samples = 1<br/>value = 4575.0>, fillcolor="#e5813988"] ;
711 -> 712 ;
713 [label=<mse = 0.0<br/>samples = 1<br/>value = 4630.0>, fillcolor="#e581398a"] ;
711 -> 713 ;
714 [label=<holiday &le; 0.5<br/>mse = 153523.832<br/>samples = 28<br/>value = 4157.012>, fillcolor="#e581397b"] ;
698 -> 714 ;
715 [label=<windspeed &le; 0.137<br/>mse = 134257.42<br/>samples = 27<br/>value = 4186.864>, fillcolor="#e581397c"] ;
714 -> 715 ;
716 [label=<windspeed &le; 0.135<br/>mse = 1122.25<br/>samples = 2<br/>value = 3607.5>, fillcolor="#e5813969"] ;
715 -> 716 ;
717 [label=<mse = 0.0<br/>samples = 1<br/>value = 3641.0>, fillcolor="#e581396a"] ;
716 -> 717 ;
718 [label=<mse = 0.0<br/>samples = 1<br/>value = 3574.0>, fillcolor="#e5813968"] ;
716 -> 718 ;
719 [label=<atemp &le; 0.685<br/>mse = 115906.934<br/>samples = 25<br/>value = 4233.214>, fillcolor="#e581397d"] ;
715 -> 719 ;
720 [label=<windspeed &le; 0.198<br/>mse = 107281.048<br/>samples = 24<br/>value = 4210.014>, fillcolor="#e581397c"] ;
719 -> 720 ;
721 [label=<season &le; 3.5<br/>mse = 91240.889<br/>samples = 12<br/>value = 4346.667>, fillcolor="#e5813981"] ;
720 -> 721 ;
722 [label=<month &le; 8.5<br/>mse = 66566.84<br/>samples = 9<br/>value = 4421.778>, fillcolor="#e5813983"] ;
721 -> 722 ;
723 [label=<windspeed &le; 0.182<br/>mse = 49019.889<br/>samples = 6<br/>value = 4299.667>, fillcolor="#e581397f"] ;
722 -> 723 ;
724 [label=<weekday &le; 0.5<br/>mse = 42958.188<br/>samples = 4<br/>value = 4205.25>, fillcolor="#e581397c"] ;
723 -> 724 ;
725 [label=<mse = 0.0<br/>samples = 1<br/>value = 4553.0>, fillcolor="#e5813988"] ;
724 -> 725 ;
726 [label=<weekday &le; 3.0<br/>mse = 3530.889<br/>samples = 3<br/>value = 4089.333>, fillcolor="#e5813978"] ;
724 -> 726 ;
727 [label=<mse = 0.0<br/>samples = 1<br/>value = 4010.0>, fillcolor="#e5813976"] ;
726 -> 727 ;
728 [label=<month &le; 6.5<br/>mse = 576.0<br/>samples = 2<br/>value = 4129.0>, fillcolor="#e581397a"] ;
726 -> 728 ;
729 [label=<mse = 0.0<br/>samples = 1<br/>value = 4105.0>, fillcolor="#e5813979"] ;
728 -> 729 ;
730 [label=<mse = 0.0<br/>samples = 1<br/>value = 4153.0>, fillcolor="#e581397b"] ;
728 -> 730 ;
731 [label=<weekday &le; 2.5<br/>mse = 7656.25<br/>samples = 2<br/>value = 4488.5>, fillcolor="#e5813986"] ;
723 -> 731 ;
732 [label=<mse = 0.0<br/>samples = 1<br/>value = 4401.0>, fillcolor="#e5813983"] ;
731 -> 732 ;
733 [label=<mse = 0.0<br/>samples = 1<br/>value = 4576.0>, fillcolor="#e5813989"] ;
731 -> 733 ;
734 [label=<workingday &le; 0.5<br/>mse = 12194.0<br/>samples = 3<br/>value = 4666.0>, fillcolor="#e581398b"] ;
722 -> 734 ;
735 [label=<mse = 0.0<br/>samples = 1<br/>value = 4511.0>, fillcolor="#e5813986"] ;
734 -> 735 ;
736 [label=<windspeed &le; 0.152<br/>mse = 272.25<br/>samples = 2<br/>value = 4743.5>, fillcolor="#e581398e"] ;
734 -> 736 ;
737 [label=<mse = 0.0<br/>samples = 1<br/>value = 4727.0>, fillcolor="#e581398d"] ;
736 -> 737 ;
738 [label=<mse = 0.0<br/>samples = 1<br/>value = 4760.0>, fillcolor="#e581398f"] ;
736 -> 738 ;
739 [label=<windspeed &le; 0.146<br/>mse = 97562.889<br/>samples = 3<br/>value = 4121.333>, fillcolor="#e581397a"] ;
721 -> 739 ;
740 [label=<mse = 0.0<br/>samples = 1<br/>value = 4563.0>, fillcolor="#e5813988"] ;
739 -> 740 ;
741 [label=<windspeed &le; 0.149<br/>mse = 42.25<br/>samples = 2<br/>value = 3900.5>, fillcolor="#e5813972"] ;
739 -> 741 ;
742 [label=<mse = 0.0<br/>samples = 1<br/>value = 3907.0>, fillcolor="#e5813972"] ;
741 -> 742 ;
743 [label=<mse = 0.0<br/>samples = 1<br/>value = 3894.0>, fillcolor="#e5813972"] ;
741 -> 743 ;
744 [label=<weekday &le; 2.5<br/>mse = 85973.417<br/>samples = 12<br/>value = 4073.362>, fillcolor="#e5813978"] ;
720 -> 744 ;
745 [label=<humidity &le; 0.814<br/>mse = 48050.909<br/>samples = 6<br/>value = 4251.89>, fillcolor="#e581397e"] ;
744 -> 745 ;
746 [label=<humidity &le; 0.693<br/>mse = 12894.105<br/>samples = 5<br/>value = 4338.268>, fillcolor="#e5813981"] ;
745 -> 746 ;
747 [label=<atemp &le; 0.588<br/>mse = 1778.348<br/>samples = 2<br/>value = 4237.17>, fillcolor="#e581397d"] ;
746 -> 747 ;
748 [label=<mse = 0.0<br/>samples = 1<br/>value = 4195.0>, fillcolor="#e581397c"] ;
747 -> 748 ;
749 [label=<mse = -0.0<br/>samples = 1<br/>value = 4279.341>, fillcolor="#e581397f"] ;
747 -> 749 ;
750 [label=<humidity &le; 0.775<br/>mse = 8948.222<br/>samples = 3<br/>value = 4405.667>, fillcolor="#e5813983"] ;
746 -> 750 ;
751 [label=<windspeed &le; 0.275<br/>mse = 420.25<br/>samples = 2<br/>value = 4471.5>, fillcolor="#e5813985"] ;
750 -> 751 ;
752 [label=<mse = 0.0<br/>samples = 1<br/>value = 4492.0>, fillcolor="#e5813986"] ;
751 -> 752 ;
753 [label=<mse = 0.0<br/>samples = 1<br/>value = 4451.0>, fillcolor="#e5813984"] ;
751 -> 753 ;
754 [label=<mse = 0.0<br/>samples = 1<br/>value = 4274.0>, fillcolor="#e581397f"] ;
750 -> 754 ;
755 [label=<mse = 0.0<br/>samples = 1<br/>value = 3820.0>, fillcolor="#e5813970"] ;
745 -> 755 ;
756 [label=<atemp &le; 0.621<br/>mse = 60151.139<br/>samples = 6<br/>value = 3894.833>, fillcolor="#e5813972"] ;
744 -> 756 ;
757 [label=<month &le; 7.5<br/>mse = 7356.188<br/>samples = 4<br/>value = 3731.25>, fillcolor="#e581396d"] ;
756 -> 757 ;
758 [label=<month &le; 5.5<br/>mse = 1936.0<br/>samples = 2<br/>value = 3811.0>, fillcolor="#e581396f"] ;
757 -> 758 ;
759 [label=<mse = 0.0<br/>samples = 1<br/>value = 3855.0>, fillcolor="#e5813971"] ;
758 -> 759 ;
760 [label=<mse = 0.0<br/>samples = 1<br/>value = 3767.0>, fillcolor="#e581396e"] ;
758 -> 760 ;
761 [label=<month &le; 9.5<br/>mse = 56.25<br/>samples = 2<br/>value = 3651.5>, fillcolor="#e581396a"] ;
757 -> 761 ;
762 [label=<mse = 0.0<br/>samples = 1<br/>value = 3659.0>, fillcolor="#e581396a"] ;
761 -> 762 ;
763 [label=<mse = 0.0<br/>samples = 1<br/>value = 3644.0>, fillcolor="#e581396a"] ;
761 -> 763 ;
764 [label=<humidity &le; 0.742<br/>mse = 5184.0<br/>samples = 2<br/>value = 4222.0>, fillcolor="#e581397d"] ;
756 -> 764 ;
765 [label=<mse = 0.0<br/>samples = 1<br/>value = 4150.0>, fillcolor="#e581397a"] ;
764 -> 765 ;
766 [label=<mse = 0.0<br/>samples = 1<br/>value = 4294.0>, fillcolor="#e581397f"] ;
764 -> 766 ;
767 [label=<mse = 0.0<br/>samples = 1<br/>value = 4790.0>, fillcolor="#e5813990"] ;
719 -> 767 ;
768 [label=<mse = 0.0<br/>samples = 1<br/>value = 3351.0>, fillcolor="#e5813960"] ;
714 -> 768 ;
769 [label=<atemp &le; 0.79<br/>mse = 146724.652<br/>samples = 16<br/>value = 4017.812>, fillcolor="#e5813976"] ;
549 -> 769 ;
770 [label=<humidity &le; 0.664<br/>mse = 76968.544<br/>samples = 13<br/>value = 4154.385>, fillcolor="#e581397b"] ;
769 -> 770 ;
771 [label=<atemp &le; 0.753<br/>mse = 65809.36<br/>samples = 10<br/>value = 4240.8>, fillcolor="#e581397d"] ;
770 -> 771 ;
772 [label=<windspeed &le; 0.121<br/>mse = 41396.609<br/>samples = 8<br/>value = 4330.875>, fillcolor="#e5813980"] ;
771 -> 772 ;
773 [label=<mse = 0.0<br/>samples = 1<br/>value = 3982.0>, fillcolor="#e5813975"] ;
772 -> 773 ;
774 [label=<windspeed &le; 0.184<br/>mse = 27438.776<br/>samples = 7<br/>value = 4380.714>, fillcolor="#e5813982"] ;
772 -> 774 ;
775 [label=<weekday &le; 1.0<br/>mse = 11061.36<br/>samples = 5<br/>value = 4464.2>, fillcolor="#e5813985"] ;
774 -> 775 ;
776 [label=<mse = 0.0<br/>samples = 1<br/>value = 4302.0>, fillcolor="#e5813980"] ;
775 -> 776 ;
777 [label=<weekday &le; 2.5<br/>mse = 5605.188<br/>samples = 4<br/>value = 4504.75>, fillcolor="#e5813986"] ;
775 -> 777 ;
778 [label=<windspeed &le; 0.141<br/>mse = 930.25<br/>samples = 2<br/>value = 4571.5>, fillcolor="#e5813988"] ;
777 -> 778 ;
779 [label=<mse = 0.0<br/>samples = 1<br/>value = 4541.0>, fillcolor="#e5813987"] ;
778 -> 779 ;
780 [label=<mse = 0.0<br/>samples = 1<br/>value = 4602.0>, fillcolor="#e5813989"] ;
778 -> 780 ;
781 [label=<windspeed &le; 0.153<br/>mse = 1369.0<br/>samples = 2<br/>value = 4438.0>, fillcolor="#e5813984"] ;
777 -> 781 ;
782 [label=<mse = 0.0<br/>samples = 1<br/>value = 4401.0>, fillcolor="#e5813983"] ;
781 -> 782 ;
783 [label=<mse = 0.0<br/>samples = 1<br/>value = 4475.0>, fillcolor="#e5813985"] ;
781 -> 783 ;
784 [label=<humidity &le; 0.598<br/>mse = 7396.0<br/>samples = 2<br/>value = 4172.0>, fillcolor="#e581397b"] ;
774 -> 784 ;
785 [label=<mse = 0.0<br/>samples = 1<br/>value = 4258.0>, fillcolor="#e581397e"] ;
784 -> 785 ;
786 [label=<mse = 0.0<br/>samples = 1<br/>value = 4086.0>, fillcolor="#e5813978"] ;
784 -> 786 ;
787 [label=<humidity &le; 0.555<br/>mse = 1190.25<br/>samples = 2<br/>value = 3880.5>, fillcolor="#e5813972"] ;
771 -> 787 ;
788 [label=<mse = 0.0<br/>samples = 1<br/>value = 3846.0>, fillcolor="#e5813970"] ;
787 -> 788 ;
789 [label=<mse = 0.0<br/>samples = 1<br/>value = 3915.0>, fillcolor="#e5813973"] ;
787 -> 789 ;
790 [label=<month &le; 6.5<br/>mse = 6300.222<br/>samples = 3<br/>value = 3866.333>, fillcolor="#e5813971"] ;
770 -> 790 ;
791 [label=<mse = 0.0<br/>samples = 1<br/>value = 3974.0>, fillcolor="#e5813975"] ;
790 -> 791 ;
792 [label=<month &le; 7.5<br/>mse = 756.25<br/>samples = 2<br/>value = 3812.5>, fillcolor="#e581396f"] ;
790 -> 792 ;
793 [label=<mse = 0.0<br/>samples = 1<br/>value = 3840.0>, fillcolor="#e5813970"] ;
792 -> 793 ;
794 [label=<mse = 0.0<br/>samples = 1<br/>value = 3785.0>, fillcolor="#e581396e"] ;
792 -> 794 ;
795 [label=<atemp &le; 0.8<br/>mse = 17934.0<br/>samples = 3<br/>value = 3426.0>, fillcolor="#e5813963"] ;
769 -> 795 ;
796 [label=<mse = 0.0<br/>samples = 1<br/>value = 3606.0>, fillcolor="#e5813969"] ;
795 -> 796 ;
797 [label=<windspeed &le; 0.132<br/>mse = 2601.0<br/>samples = 2<br/>value = 3336.0>, fillcolor="#e5813960"] ;
795 -> 797 ;
798 [label=<mse = 0.0<br/>samples = 1<br/>value = 3285.0>, fillcolor="#e581395e"] ;
797 -> 798 ;
799 [label=<mse = 0.0<br/>samples = 1<br/>value = 3387.0>, fillcolor="#e5813961"] ;
797 -> 799 ;
800 [label=<mse = 0.0<br/>samples = 1<br/>value = 1115.0>, fillcolor="#e5813917"] ;
536 -> 800 ;
801 [label=<windspeed &le; 0.136<br/>mse = 632673.506<br/>samples = 9<br/>value = 2754.778>, fillcolor="#e581394d"] ;
501 -> 801 ;
802 [label=<windspeed &le; 0.087<br/>mse = 483661.5<br/>samples = 4<br/>value = 3425.0>, fillcolor="#e5813963"] ;
801 -> 802 ;
803 [label=<mse = 0.0<br/>samples = 1<br/>value = 2395.0>, fillcolor="#e5813941"] ;
802 -> 803 ;
804 [label=<windspeed &le; 0.11<br/>mse = 173370.889<br/>samples = 3<br/>value = 3768.333>, fillcolor="#e581396e"] ;
802 -> 804 ;
805 [label=<mse = 0.0<br/>samples = 1<br/>value = 4352.0>, fillcolor="#e5813981"] ;
804 -> 805 ;
806 [label=<season &le; 2.5<br/>mse = 4556.25<br/>samples = 2<br/>value = 3476.5>, fillcolor="#e5813964"] ;
804 -> 806 ;
807 [label=<mse = 0.0<br/>samples = 1<br/>value = 3409.0>, fillcolor="#e5813962"] ;
806 -> 807 ;
808 [label=<mse = 0.0<br/>samples = 1<br/>value = 3544.0>, fillcolor="#e5813967"] ;
806 -> 808 ;
809 [label=<windspeed &le; 0.213<br/>mse = 105038.24<br/>samples = 5<br/>value = 2218.6>, fillcolor="#e581393b"] ;
801 -> 809 ;
810 [label=<atemp &le; 0.504<br/>mse = 156.25<br/>samples = 2<br/>value = 1829.5>, fillcolor="#e581392e"] ;
809 -> 810 ;
811 [label=<mse = 0.0<br/>samples = 1<br/>value = 1817.0>, fillcolor="#e581392e"] ;
810 -> 811 ;
812 [label=<mse = 0.0<br/>samples = 1<br/>value = 1842.0>, fillcolor="#e581392e"] ;
810 -> 812 ;
813 [label=<month &le; 11.0<br/>mse = 6738.667<br/>samples = 3<br/>value = 2478.0>, fillcolor="#e5813943"] ;
809 -> 813 ;
814 [label=<atemp &le; 0.516<br/>mse = 16.0<br/>samples = 2<br/>value = 2420.0>, fillcolor="#e5813942"] ;
813 -> 814 ;
815 [label=<mse = 0.0<br/>samples = 1<br/>value = 2424.0>, fillcolor="#e5813942"] ;
814 -> 815 ;
816 [label=<mse = 0.0<br/>samples = 1<br/>value = 2416.0>, fillcolor="#e5813941"] ;
814 -> 816 ;
817 [label=<mse = 0.0<br/>samples = 1<br/>value = 2594.0>, fillcolor="#e5813947"] ;
813 -> 817 ;
818 [label=<humidity &le; 0.771<br/>mse = 920438.89<br/>samples = 174<br/>value = 6550.83>, fillcolor="#e58139ca"] ;
500 -> 818 ;
819 [label=<month &le; 5.5<br/>mse = 646722.615<br/>samples = 150<br/>value = 6728.71>, fillcolor="#e58139cf"] ;
818 -> 819 ;
820 [label=<atemp &le; 0.486<br/>mse = 597082.499<br/>samples = 46<br/>value = 6232.565>, fillcolor="#e58139bf"] ;
819 -> 820 ;
821 [label=<humidity &le; 0.456<br/>mse = 435517.556<br/>samples = 12<br/>value = 5543.667>, fillcolor="#e58139a8"] ;
820 -> 821 ;
822 [label=<weekday &le; 2.5<br/>mse = 81655.6<br/>samples = 5<br/>value = 6066.0>, fillcolor="#e58139ba"] ;
821 -> 822 ;
823 [label=<windspeed &le; 0.304<br/>mse = 27722.25<br/>samples = 2<br/>value = 5751.5>, fillcolor="#e58139af"] ;
822 -> 823 ;
824 [label=<mse = 0.0<br/>samples = 1<br/>value = 5918.0>, fillcolor="#e58139b5"] ;
823 -> 824 ;
825 [label=<mse = 0.0<br/>samples = 1<br/>value = 5585.0>, fillcolor="#e58139aa"] ;
823 -> 825 ;
826 [label=<atemp &le; 0.442<br/>mse = 7710.889<br/>samples = 3<br/>value = 6275.667>, fillcolor="#e58139c1"] ;
822 -> 826 ;
827 [label=<mse = 0.0<br/>samples = 1<br/>value = 6398.0>, fillcolor="#e58139c5"] ;
826 -> 827 ;
828 [label=<atemp &le; 0.461<br/>mse = 342.25<br/>samples = 2<br/>value = 6214.5>, fillcolor="#e58139be"] ;
826 -> 828 ;
829 [label=<mse = 0.0<br/>samples = 1<br/>value = 6233.0>, fillcolor="#e58139bf"] ;
828 -> 829 ;
830 [label=<mse = 0.0<br/>samples = 1<br/>value = 6196.0>, fillcolor="#e58139be"] ;
828 -> 830 ;
831 [label=<weekday &le; 2.0<br/>mse = 354195.959<br/>samples = 7<br/>value = 5170.571>, fillcolor="#e581399c"] ;
821 -> 831 ;
832 [label=<weekday &le; 0.5<br/>mse = 181794.667<br/>samples = 3<br/>value = 5720.0>, fillcolor="#e58139ae"] ;
831 -> 832 ;
833 [label=<mse = 0.0<br/>samples = 1<br/>value = 6304.0>, fillcolor="#e58139c1"] ;
832 -> 833 ;
834 [label=<atemp &le; 0.449<br/>mse = 16900.0<br/>samples = 2<br/>value = 5428.0>, fillcolor="#e58139a5"] ;
832 -> 834 ;
835 [label=<mse = 0.0<br/>samples = 1<br/>value = 5558.0>, fillcolor="#e58139a9"] ;
834 -> 835 ;
836 [label=<mse = 0.0<br/>samples = 1<br/>value = 5298.0>, fillcolor="#e58139a0"] ;
834 -> 836 ;
837 [label=<weekday &le; 3.5<br/>mse = 87290.25<br/>samples = 4<br/>value = 4758.5>, fillcolor="#e581398f"] ;
831 -> 837 ;
838 [label=<season &le; 1.5<br/>mse = 11236.0<br/>samples = 2<br/>value = 4473.0>, fillcolor="#e5813985"] ;
837 -> 838 ;
839 [label=<mse = 0.0<br/>samples = 1<br/>value = 4579.0>, fillcolor="#e5813989"] ;
838 -> 839 ;
840 [label=<mse = 0.0<br/>samples = 1<br/>value = 4367.0>, fillcolor="#e5813982"] ;
838 -> 840 ;
841 [label=<humidity &le; 0.656<br/>mse = 324.0<br/>samples = 2<br/>value = 5044.0>, fillcolor="#e5813998"] ;
837 -> 841 ;
842 [label=<mse = 0.0<br/>samples = 1<br/>value = 5062.0>, fillcolor="#e5813999"] ;
841 -> 842 ;
843 [label=<mse = 0.0<br/>samples = 1<br/>value = 5026.0>, fillcolor="#e5813997"] ;
841 -> 843 ;
844 [label=<windspeed &le; 0.196<br/>mse = 427488.989<br/>samples = 34<br/>value = 6475.705>, fillcolor="#e58139c7"] ;
820 -> 844 ;
845 [label=<weekday &le; 2.5<br/>mse = 205536.603<br/>samples = 19<br/>value = 6802.586>, fillcolor="#e58139d2"] ;
844 -> 845 ;
846 [label=<weekday &le; 0.5<br/>mse = 14514.667<br/>samples = 3<br/>value = 6195.0>, fillcolor="#e58139be"] ;
845 -> 846 ;
847 [label=<mse = 0.0<br/>samples = 1<br/>value = 6359.0>, fillcolor="#e58139c3"] ;
846 -> 847 ;
848 [label=<atemp &le; 0.557<br/>mse = 1600.0<br/>samples = 2<br/>value = 6113.0>, fillcolor="#e58139bb"] ;
846 -> 848 ;
849 [label=<mse = 0.0<br/>samples = 1<br/>value = 6153.0>, fillcolor="#e58139bc"] ;
848 -> 849 ;
850 [label=<mse = 0.0<br/>samples = 1<br/>value = 6073.0>, fillcolor="#e58139ba"] ;
848 -> 850 ;
851 [label=<atemp &le; 0.541<br/>mse = 159157.245<br/>samples = 16<br/>value = 6916.508>, fillcolor="#e58139d6"] ;
845 -> 851 ;
852 [label=<weekday &le; 4.5<br/>mse = 113904.558<br/>samples = 7<br/>value = 6655.028>, fillcolor="#e58139cd"] ;
851 -> 852 ;
853 [label=<season &le; 1.5<br/>mse = 18044.25<br/>samples = 4<br/>value = 6403.5>, fillcolor="#e58139c5"] ;
852 -> 853 ;
854 [label=<mse = 0.0<br/>samples = 1<br/>value = 6192.0>, fillcolor="#e58139be"] ;
853 -> 854 ;
855 [label=<atemp &le; 0.513<br/>mse = 4178.0<br/>samples = 3<br/>value = 6474.0>, fillcolor="#e58139c7"] ;
853 -> 855 ;
856 [label=<mse = 0.0<br/>samples = 1<br/>value = 6565.0>, fillcolor="#e58139ca"] ;
855 -> 856 ;
857 [label=<weekday &le; 3.5<br/>mse = 56.25<br/>samples = 2<br/>value = 6428.5>, fillcolor="#e58139c6"] ;
855 -> 857 ;
858 [label=<mse = 0.0<br/>samples = 1<br/>value = 6436.0>, fillcolor="#e58139c6"] ;
857 -> 858 ;
859 [label=<mse = 0.0<br/>samples = 1<br/>value = 6421.0>, fillcolor="#e58139c5"] ;
857 -> 859 ;
860 [label=<weekday &le; 5.5<br/>mse = 44888.954<br/>samples = 3<br/>value = 6990.4>, fillcolor="#e58139d8"] ;
852 -> 860 ;
861 [label=<mse = 0.0<br/>samples = 1<br/>value = 7290.0>, fillcolor="#e58139e2"] ;
860 -> 861 ;
862 [label=<month &le; 3.5<br/>mse = 13.214<br/>samples = 2<br/>value = 6840.6>, fillcolor="#e58139d3"] ;
860 -> 862 ;
863 [label=<mse = 0.0<br/>samples = 1<br/>value = 6844.235>, fillcolor="#e58139d3"] ;
862 -> 863 ;
864 [label=<mse = -0.0<br/>samples = 1<br/>value = 6836.965>, fillcolor="#e58139d3"] ;
862 -> 864 ;
865 [label=<humidity &le; 0.707<br/>mse = 99815.01<br/>samples = 9<br/>value = 7119.882>, fillcolor="#e58139dc"] ;
851 -> 865 ;
866 [label=<weekday &le; 5.5<br/>mse = 78525.372<br/>samples = 7<br/>value = 7224.991>, fillcolor="#e58139e0"] ;
865 -> 866 ;
867 [label=<atemp &le; 0.604<br/>mse = 67486.543<br/>samples = 5<br/>value = 7334.556>, fillcolor="#e58139e3"] ;
866 -> 867 ;
868 [label=<atemp &le; 0.561<br/>mse = 10628.844<br/>samples = 3<br/>value = 7493.259>, fillcolor="#e58139e9"] ;
867 -> 868 ;
869 [label=<mse = 0.0<br/>samples = 1<br/>value = 7639.0>, fillcolor="#e58139ed"] ;
868 -> 869 ;
870 [label=<windspeed &le; 0.119<br/>mse = 13.038<br/>samples = 2<br/>value = 7420.389>, fillcolor="#e58139e6"] ;
868 -> 870 ;
871 [label=<mse = 0.0<br/>samples = 1<br/>value = 7416.778>, fillcolor="#e58139e6"] ;
870 -> 871 ;
872 [label=<mse = 0.0<br/>samples = 1<br/>value = 7424.0>, fillcolor="#e58139e6"] ;
870 -> 872 ;
873 [label=<weather_type &le; 1.5<br/>mse = 58322.25<br/>samples = 2<br/>value = 7096.5>, fillcolor="#e58139dc"] ;
867 -> 873 ;
874 [label=<mse = 0.0<br/>samples = 1<br/>value = 7338.0>, fillcolor="#e58139e3"] ;
873 -> 874 ;
875 [label=<mse = 0.0<br/>samples = 1<br/>value = 6855.0>, fillcolor="#e58139d4"] ;
873 -> 875 ;
876 [label=<humidity &le; 0.468<br/>mse = 1083.579<br/>samples = 2<br/>value = 6951.079>, fillcolor="#e58139d7"] ;
866 -> 876 ;
877 [label=<mse = 0.0<br/>samples = 1<br/>value = 6918.161>, fillcolor="#e58139d6"] ;
876 -> 877 ;
878 [label=<mse = 0.0<br/>samples = 1<br/>value = 6983.997>, fillcolor="#e58139d8"] ;
876 -> 878 ;
879 [label=<atemp &le; 0.617<br/>mse = 324.0<br/>samples = 2<br/>value = 6752.0>, fillcolor="#e58139d0"] ;
865 -> 879 ;
880 [label=<mse = 0.0<br/>samples = 1<br/>value = 6770.0>, fillcolor="#e58139d1"] ;
879 -> 880 ;
881 [label=<mse = 0.0<br/>samples = 1<br/>value = 6734.0>, fillcolor="#e58139d0"] ;
879 -> 881 ;
882 [label=<humidity &le; 0.565<br/>mse = 401847.753<br/>samples = 15<br/>value = 6061.657>, fillcolor="#e58139b9"] ;
844 -> 882 ;
883 [label=<atemp &le; 0.573<br/>mse = 107259.09<br/>samples = 6<br/>value = 6688.521>, fillcolor="#e58139ce"] ;
882 -> 883 ;
